digraph Tree {
node [shape=box, fontname="helvetica"] ;
edge [fontname="helvetica"] ;
0 [label="X[5] <= 0.211\ngini = 0.5\nsamples = 40228\nvalue = [20361, 19867]\nclass = y[0]"] ;
1 [label="X[0] <= -0.622\ngini = 0.204\nsamples = 21213\nvalue = [18772, 2441]\nclass = y[0]"] ;
0 -> 1 [labeldistance=2.5, labelangle=45, headlabel="True"] ;
2 [label="X[5] <= -1.102\ngini = 0.32\nsamples = 2568\nvalue = [514, 2054]\nclass = y[1]"] ;
1 -> 2 ;
3 [label="X[0] <= -1.424\ngini = 0.197\nsamples = 487\nvalue = [433, 54]\nclass = y[0]"] ;
2 -> 3 ;
4 [label="X[5] <= -1.364\ngini = 0.364\nsamples = 46\nvalue = [11, 35]\nclass = y[1]"] ;
3 -> 4 ;
5 [label="X[8] <= -0.769\ngini = 0.355\nsamples = 13\nvalue = [10, 3]\nclass = y[0]"] ;
4 -> 5 ;
6 [label="X[10] <= 0.5\ngini = 0.18\nsamples = 10\nvalue = [9, 1]\nclass = y[0]"] ;
5 -> 6 ;
7 [label="X[21] <= 0.5\ngini = 0.375\nsamples = 4\nvalue = [3, 1]\nclass = y[0]"] ;
6 -> 7 ;
8 [label="gini = 0.0\nsamples = 2\nvalue = [2, 0]\nclass = y[0]"] ;
7 -> 8 ;
9 [label="X[24] <= 0.5\ngini = 0.5\nsamples = 2\nvalue = [1, 1]\nclass = y[0]"] ;
7 -> 9 ;
10 [label="gini = 0.0\nsamples = 1\nvalue = [1, 0]\nclass = y[0]"] ;
9 -> 10 ;
11 [label="gini = 0.0\nsamples = 1\nvalue = [0, 1]\nclass = y[1]"] ;
9 -> 11 ;
12 [label="gini = 0.0\nsamples = 6\nvalue = [6, 0]\nclass = y[0]"] ;
6 -> 12 ;
13 [label="gini = 0.444\nsamples = 3\nvalue = [1, 2]\nclass = y[1]"] ;
5 -> 13 ;
14 [label="X[10] <= 0.5\ngini = 0.059\nsamples = 33\nvalue = [1, 32]\nclass = y[1]"] ;
4 -> 14 ;
15 [label="gini = 0.0\nsamples = 25\nvalue = [0, 25]\nclass = y[1]"] ;
14 -> 15 ;
16 [label="X[21] <= 0.5\ngini = 0.219\nsamples = 8\nvalue = [1, 7]\nclass = y[1]"] ;
14 -> 16 ;
17 [label="gini = 0.0\nsamples = 5\nvalue = [0, 5]\nclass = y[1]"] ;
16 -> 17 ;
18 [label="gini = 0.444\nsamples = 3\nvalue = [1, 2]\nclass = y[1]"] ;
16 -> 18 ;
19 [label="X[8] <= -0.769\ngini = 0.082\nsamples = 441\nvalue = [422, 19]\nclass = y[0]"] ;
3 -> 19 ;
20 [label="X[26] <= 0.5\ngini = 0.021\nsamples = 372\nvalue = [368, 4]\nclass = y[0]"] ;
19 -> 20 ;
21 [label="X[0] <= -1.157\ngini = 0.011\nsamples = 360\nvalue = [358, 2]\nclass = y[0]"] ;
20 -> 21 ;
22 [label="X[5] <= -1.364\ngini = 0.077\nsamples = 50\nvalue = [48, 2]\nclass = y[0]"] ;
21 -> 22 ;
23 [label="gini = 0.0\nsamples = 40\nvalue = [40, 0]\nclass = y[0]"] ;
22 -> 23 ;
24 [label="X[10] <= 0.5\ngini = 0.32\nsamples = 10\nvalue = [8, 2]\nclass = y[0]"] ;
22 -> 24 ;
25 [label="X[14] <= 0.5\ngini = 0.5\nsamples = 4\nvalue = [2, 2]\nclass = y[0]"] ;
24 -> 25 ;
26 [label="X[22] <= 0.5\ngini = 0.444\nsamples = 3\nvalue = [2, 1]\nclass = y[0]"] ;
25 -> 26 ;
27 [label="gini = 0.5\nsamples = 2\nvalue = [1, 1]\nclass = y[0]"] ;
26 -> 27 ;
28 [label="gini = 0.0\nsamples = 1\nvalue = [1, 0]\nclass = y[0]"] ;
26 -> 28 ;
29 [label="gini = 0.0\nsamples = 1\nvalue = [0, 1]\nclass = y[1]"] ;
25 -> 29 ;
30 [label="gini = 0.0\nsamples = 6\nvalue = [6, 0]\nclass = y[0]"] ;
24 -> 30 ;
31 [label="gini = 0.0\nsamples = 310\nvalue = [310, 0]\nclass = y[0]"] ;
21 -> 31 ;
32 [label="X[21] <= 0.5\ngini = 0.278\nsamples = 12\nvalue = [10, 2]\nclass = y[0]"] ;
20 -> 32 ;
33 [label="X[11] <= 0.5\ngini = 0.165\nsamples = 11\nvalue = [10, 1]\nclass = y[0]"] ;
32 -> 33 ;
34 [label="gini = 0.0\nsamples = 7\nvalue = [7, 0]\nclass = y[0]"] ;
33 -> 34 ;
35 [label="X[5] <= -1.364\ngini = 0.375\nsamples = 4\nvalue = [3, 1]\nclass = y[0]"] ;
33 -> 35 ;
36 [label="gini = 0.0\nsamples = 1\nvalue = [1, 0]\nclass = y[0]"] ;
35 -> 36 ;
37 [label="X[3] <= 0.067\ngini = 0.444\nsamples = 3\nvalue = [2, 1]\nclass = y[0]"] ;
35 -> 37 ;
38 [label="gini = 0.5\nsamples = 2\nvalue = [1, 1]\nclass = y[0]"] ;
37 -> 38 ;
39 [label="gini = 0.0\nsamples = 1\nvalue = [1, 0]\nclass = y[0]"] ;
37 -> 39 ;
40 [label="gini = 0.0\nsamples = 1\nvalue = [0, 1]\nclass = y[1]"] ;
32 -> 40 ;
41 [label="X[0] <= -1.157\ngini = 0.34\nsamples = 69\nvalue = [54, 15]\nclass = y[0]"] ;
19 -> 41 ;
42 [label="X[5] <= -1.364\ngini = 0.469\nsamples = 16\nvalue = [6, 10]\nclass = y[1]"] ;
41 -> 42 ;
43 [label="X[23] <= 0.5\ngini = 0.32\nsamples = 5\nvalue = [4, 1]\nclass = y[0]"] ;
42 -> 43 ;
44 [label="X[4] <= 0.558\ngini = 0.5\nsamples = 2\nvalue = [1, 1]\nclass = y[0]"] ;
43 -> 44 ;
45 [label="gini = 0.0\nsamples = 1\nvalue = [0, 1]\nclass = y[1]"] ;
44 -> 45 ;
46 [label="gini = 0.0\nsamples = 1\nvalue = [1, 0]\nclass = y[0]"] ;
44 -> 46 ;
47 [label="gini = 0.0\nsamples = 3\nvalue = [3, 0]\nclass = y[0]"] ;
43 -> 47 ;
48 [label="X[25] <= 0.5\ngini = 0.298\nsamples = 11\nvalue = [2, 9]\nclass = y[1]"] ;
42 -> 48 ;
49 [label="X[3] <= -0.764\ngini = 0.18\nsamples = 10\nvalue = [1, 9]\nclass = y[1]"] ;
48 -> 49 ;
50 [label="gini = 0.0\nsamples = 6\nvalue = [0, 6]\nclass = y[1]"] ;
49 -> 50 ;
51 [label="X[22] <= 0.5\ngini = 0.375\nsamples = 4\nvalue = [1, 3]\nclass = y[1]"] ;
49 -> 51 ;
52 [label="gini = 0.0\nsamples = 1\nvalue = [1, 0]\nclass = y[0]"] ;
51 -> 52 ;
53 [label="gini = 0.0\nsamples = 3\nvalue = [0, 3]\nclass = y[1]"] ;
51 -> 53 ;
54 [label="gini = 0.0\nsamples = 1\nvalue = [1, 0]\nclass = y[0]"] ;
48 -> 54 ;
55 [label="X[11] <= 0.5\ngini = 0.171\nsamples = 53\nvalue = [48, 5]\nclass = y[0]"] ;
41 -> 55 ;
56 [label="gini = 0.0\nsamples = 35\nvalue = [35, 0]\nclass = y[0]"] ;
55 -> 56 ;
57 [label="X[5] <= -1.364\ngini = 0.401\nsamples = 18\nvalue = [13, 5]\nclass = y[0]"] ;
55 -> 57 ;
58 [label="X[3] <= -0.764\ngini = 0.18\nsamples = 10\nvalue = [9, 1]\nclass = y[0]"] ;
57 -> 58 ;
59 [label="X[24] <= 0.5\ngini = 0.375\nsamples = 4\nvalue = [3, 1]\nclass = y[0]"] ;
58 -> 59 ;
60 [label="gini = 0.0\nsamples = 1\nvalue = [1, 0]\nclass = y[0]"] ;
59 -> 60 ;
61 [label="gini = 0.444\nsamples = 3\nvalue = [2, 1]\nclass = y[0]"] ;
59 -> 61 ;
62 [label="gini = 0.0\nsamples = 6\nvalue = [6, 0]\nclass = y[0]"] ;
58 -> 62 ;
63 [label="X[24] <= 0.5\ngini = 0.5\nsamples = 8\nvalue = [4, 4]\nclass = y[0]"] ;
57 -> 63 ;
64 [label="gini = 0.0\nsamples = 3\nvalue = [3, 0]\nclass = y[0]"] ;
63 -> 64 ;
65 [label="X[14] <= 0.5\ngini = 0.32\nsamples = 5\nvalue = [1, 4]\nclass = y[1]"] ;
63 -> 65 ;
66 [label="gini = 0.0\nsamples = 3\nvalue = [0, 3]\nclass = y[1]"] ;
65 -> 66 ;
67 [label="X[0] <= -0.89\ngini = 0.5\nsamples = 2\nvalue = [1, 1]\nclass = y[0]"] ;
65 -> 67 ;
68 [label="gini = 0.0\nsamples = 1\nvalue = [0, 1]\nclass = y[1]"] ;
67 -> 68 ;
69 [label="gini = 0.0\nsamples = 1\nvalue = [1, 0]\nclass = y[0]"] ;
67 -> 69 ;
70 [label="X[0] <= -0.89\ngini = 0.075\nsamples = 2081\nvalue = [81, 2000]\nclass = y[1]"] ;
2 -> 70 ;
71 [label="X[0] <= -1.157\ngini = 0.025\nsamples = 1793\nvalue = [23, 1770]\nclass = y[1]"] ;
70 -> 71 ;
72 [label="X[5] <= -0.839\ngini = 0.008\nsamples = 1481\nvalue = [6, 1475]\nclass = y[1]"] ;
71 -> 72 ;
73 [label="X[25] <= 0.5\ngini = 0.047\nsamples = 125\nvalue = [3, 122]\nclass = y[1]"] ;
72 -> 73 ;
74 [label="X[13] <= 0.5\ngini = 0.017\nsamples = 119\nvalue = [1, 118]\nclass = y[1]"] ;
73 -> 74 ;
75 [label="gini = 0.0\nsamples = 109\nvalue = [0, 109]\nclass = y[1]"] ;
74 -> 75 ;
76 [label="X[3] <= -0.764\ngini = 0.18\nsamples = 10\nvalue = [1, 9]\nclass = y[1]"] ;
74 -> 76 ;
77 [label="gini = 0.0\nsamples = 6\nvalue = [0, 6]\nclass = y[1]"] ;
76 -> 77 ;
78 [label="X[10] <= 0.5\ngini = 0.375\nsamples = 4\nvalue = [1, 3]\nclass = y[1]"] ;
76 -> 78 ;
79 [label="gini = 0.0\nsamples = 1\nvalue = [1, 0]\nclass = y[0]"] ;
78 -> 79 ;
80 [label="gini = 0.0\nsamples = 3\nvalue = [0, 3]\nclass = y[1]"] ;
78 -> 80 ;
81 [label="X[13] <= 0.5\ngini = 0.444\nsamples = 6\nvalue = [2, 4]\nclass = y[1]"] ;
73 -> 81 ;
82 [label="X[22] <= 0.5\ngini = 0.32\nsamples = 5\nvalue = [1, 4]\nclass = y[1]"] ;
81 -> 82 ;
83 [label="gini = 0.0\nsamples = 3\nvalue = [0, 3]\nclass = y[1]"] ;
82 -> 83 ;
84 [label="X[10] <= 0.5\ngini = 0.5\nsamples = 2\nvalue = [1, 1]\nclass = y[0]"] ;
82 -> 84 ;
85 [label="gini = 0.0\nsamples = 1\nvalue = [0, 1]\nclass = y[1]"] ;
84 -> 85 ;
86 [label="gini = 0.0\nsamples = 1\nvalue = [1, 0]\nclass = y[0]"] ;
84 -> 86 ;
87 [label="gini = 0.0\nsamples = 1\nvalue = [1, 0]\nclass = y[0]"] ;
81 -> 87 ;
88 [label="X[8] <= -0.769\ngini = 0.004\nsamples = 1356\nvalue = [3, 1353]\nclass = y[1]"] ;
72 -> 88 ;
89 [label="X[17] <= 0.5\ngini = 0.02\nsamples = 203\nvalue = [2, 201]\nclass = y[1]"] ;
88 -> 89 ;
90 [label="X[0] <= -1.424\ngini = 0.011\nsamples = 173\nvalue = [1, 172]\nclass = y[1]"] ;
89 -> 90 ;
91 [label="gini = 0.0\nsamples = 107\nvalue = [0, 107]\nclass = y[1]"] ;
90 -> 91 ;
92 [label="X[22] <= 0.5\ngini = 0.03\nsamples = 66\nvalue = [1, 65]\nclass = y[1]"] ;
90 -> 92 ;
93 [label="gini = 0.0\nsamples = 24\nvalue = [0, 24]\nclass = y[1]"] ;
92 -> 93 ;
94 [label="X[5] <= -0.314\ngini = 0.046\nsamples = 42\nvalue = [1, 41]\nclass = y[1]"] ;
92 -> 94 ;
95 [label="X[5] <= -0.577\ngini = 0.087\nsamples = 22\nvalue = [1, 21]\nclass = y[1]"] ;
94 -> 95 ;
96 [label="gini = 0.0\nsamples = 11\nvalue = [0, 11]\nclass = y[1]"] ;
95 -> 96 ;
97 [label="X[9] <= 0.587\ngini = 0.165\nsamples = 11\nvalue = [1, 10]\nclass = y[1]"] ;
95 -> 97 ;
98 [label="X[14] <= 0.5\ngini = 0.245\nsamples = 7\nvalue = [1, 6]\nclass = y[1]"] ;
97 -> 98 ;
99 [label="gini = 0.0\nsamples = 3\nvalue = [0, 3]\nclass = y[1]"] ;
98 -> 99 ;
100 [label="X[10] <= 0.5\ngini = 0.375\nsamples = 4\nvalue = [1, 3]\nclass = y[1]"] ;
98 -> 100 ;
101 [label="gini = 0.444\nsamples = 3\nvalue = [1, 2]\nclass = y[1]"] ;
100 -> 101 ;
102 [label="gini = 0.0\nsamples = 1\nvalue = [0, 1]\nclass = y[1]"] ;
100 -> 102 ;
103 [label="gini = 0.0\nsamples = 4\nvalue = [0, 4]\nclass = y[1]"] ;
97 -> 103 ;
104 [label="gini = 0.0\nsamples = 20\nvalue = [0, 20]\nclass = y[1]"] ;
94 -> 104 ;
105 [label="X[22] <= 0.5\ngini = 0.064\nsamples = 30\nvalue = [1, 29]\nclass = y[1]"] ;
89 -> 105 ;
106 [label="X[0] <= -1.424\ngini = 0.124\nsamples = 15\nvalue = [1, 14]\nclass = y[1]"] ;
105 -> 106 ;
107 [label="X[26] <= 0.5\ngini = 0.219\nsamples = 8\nvalue = [1, 7]\nclass = y[1]"] ;
106 -> 107 ;
108 [label="X[5] <= -0.052\ngini = 0.32\nsamples = 5\nvalue = [1, 4]\nclass = y[1]"] ;
107 -> 108 ;
109 [label="gini = 0.0\nsamples = 1\nvalue = [0, 1]\nclass = y[1]"] ;
108 -> 109 ;
110 [label="gini = 0.375\nsamples = 4\nvalue = [1, 3]\nclass = y[1]"] ;
108 -> 110 ;
111 [label="gini = 0.0\nsamples = 3\nvalue = [0, 3]\nclass = y[1]"] ;
107 -> 111 ;
112 [label="gini = 0.0\nsamples = 7\nvalue = [0, 7]\nclass = y[1]"] ;
106 -> 112 ;
113 [label="gini = 0.0\nsamples = 15\nvalue = [0, 15]\nclass = y[1]"] ;
105 -> 113 ;
114 [label="X[10] <= 0.5\ngini = 0.002\nsamples = 1153\nvalue = [1, 1152]\nclass = y[1]"] ;
88 -> 114 ;
115 [label="gini = 0.0\nsamples = 792\nvalue = [0, 792]\nclass = y[1]"] ;
114 -> 115 ;
116 [label="X[9] <= 0.587\ngini = 0.006\nsamples = 361\nvalue = [1, 360]\nclass = y[1]"] ;
114 -> 116 ;
117 [label="gini = 0.0\nsamples = 228\nvalue = [0, 228]\nclass = y[1]"] ;
116 -> 117 ;
118 [label="X[5] <= -0.314\ngini = 0.015\nsamples = 133\nvalue = [1, 132]\nclass = y[1]"] ;
116 -> 118 ;
119 [label="X[8] <= 0.051\ngini = 0.045\nsamples = 43\nvalue = [1, 42]\nclass = y[1]"] ;
118 -> 119 ;
120 [label="gini = 0.0\nsamples = 29\nvalue = [0, 29]\nclass = y[1]"] ;
119 -> 120 ;
121 [label="X[0] <= -1.424\ngini = 0.133\nsamples = 14\nvalue = [1, 13]\nclass = y[1]"] ;
119 -> 121 ;
122 [label="gini = 0.0\nsamples = 6\nvalue = [0, 6]\nclass = y[1]"] ;
121 -> 122 ;
123 [label="X[14] <= 0.5\ngini = 0.219\nsamples = 8\nvalue = [1, 7]\nclass = y[1]"] ;
121 -> 123 ;
124 [label="gini = 0.0\nsamples = 2\nvalue = [0, 2]\nclass = y[1]"] ;
123 -> 124 ;
125 [label="X[5] <= -0.577\ngini = 0.278\nsamples = 6\nvalue = [1, 5]\nclass = y[1]"] ;
123 -> 125 ;
126 [label="gini = 0.0\nsamples = 2\nvalue = [0, 2]\nclass = y[1]"] ;
125 -> 126 ;
127 [label="gini = 0.375\nsamples = 4\nvalue = [1, 3]\nclass = y[1]"] ;
125 -> 127 ;
128 [label="gini = 0.0\nsamples = 90\nvalue = [0, 90]\nclass = y[1]"] ;
118 -> 128 ;
129 [label="X[5] <= -0.839\ngini = 0.103\nsamples = 312\nvalue = [17, 295]\nclass = y[1]"] ;
71 -> 129 ;
130 [label="X[11] <= 0.5\ngini = 0.444\nsamples = 21\nvalue = [7, 14]\nclass = y[1]"] ;
129 -> 130 ;
131 [label="X[23] <= 0.5\ngini = 0.497\nsamples = 13\nvalue = [7, 6]\nclass = y[0]"] ;
130 -> 131 ;
132 [label="X[4] <= 0.558\ngini = 0.375\nsamples = 8\nvalue = [6, 2]\nclass = y[0]"] ;
131 -> 132 ;
133 [label="X[21] <= 0.5\ngini = 0.408\nsamples = 7\nvalue = [5, 2]\nclass = y[0]"] ;
132 -> 133 ;
134 [label="gini = 0.32\nsamples = 5\nvalue = [4, 1]\nclass = y[0]"] ;
133 -> 134 ;
135 [label="gini = 0.5\nsamples = 2\nvalue = [1, 1]\nclass = y[0]"] ;
133 -> 135 ;
136 [label="gini = 0.0\nsamples = 1\nvalue = [1, 0]\nclass = y[0]"] ;
132 -> 136 ;
137 [label="X[13] <= 0.5\ngini = 0.32\nsamples = 5\nvalue = [1, 4]\nclass = y[1]"] ;
131 -> 137 ;
138 [label="gini = 0.0\nsamples = 1\nvalue = [1, 0]\nclass = y[0]"] ;
137 -> 138 ;
139 [label="gini = 0.0\nsamples = 4\nvalue = [0, 4]\nclass = y[1]"] ;
137 -> 139 ;
140 [label="gini = 0.0\nsamples = 8\nvalue = [0, 8]\nclass = y[1]"] ;
130 -> 140 ;
141 [label="X[19] <= 0.5\ngini = 0.066\nsamples = 291\nvalue = [10, 281]\nclass = y[1]"] ;
129 -> 141 ;
142 [label="X[5] <= -0.577\ngini = 0.054\nsamples = 286\nvalue = [8, 278]\nclass = y[1]"] ;
141 -> 142 ;
143 [label="X[3] <= 0.067\ngini = 0.227\nsamples = 46\nvalue = [6, 40]\nclass = y[1]"] ;
142 -> 143 ;
144 [label="X[8] <= -0.769\ngini = 0.133\nsamples = 42\nvalue = [3, 39]\nclass = y[1]"] ;
143 -> 144 ;
145 [label="X[14] <= 0.5\ngini = 0.48\nsamples = 5\nvalue = [3, 2]\nclass = y[0]"] ;
144 -> 145 ;
146 [label="gini = 0.0\nsamples = 2\nvalue = [0, 2]\nclass = y[1]"] ;
145 -> 146 ;
147 [label="gini = 0.0\nsamples = 3\nvalue = [3, 0]\nclass = y[0]"] ;
145 -> 147 ;
148 [label="gini = 0.0\nsamples = 37\nvalue = [0, 37]\nclass = y[1]"] ;
144 -> 148 ;
149 [label="X[11] <= 0.5\ngini = 0.375\nsamples = 4\nvalue = [3, 1]\nclass = y[0]"] ;
143 -> 149 ;
150 [label="gini = 0.0\nsamples = 2\nvalue = [2, 0]\nclass = y[0]"] ;
149 -> 150 ;
151 [label="X[13] <= 0.5\ngini = 0.5\nsamples = 2\nvalue = [1, 1]\nclass = y[0]"] ;
149 -> 151 ;
152 [label="gini = 0.0\nsamples = 1\nvalue = [0, 1]\nclass = y[1]"] ;
151 -> 152 ;
153 [label="gini = 0.0\nsamples = 1\nvalue = [1, 0]\nclass = y[0]"] ;
151 -> 153 ;
154 [label="X[13] <= 0.5\ngini = 0.017\nsamples = 240\nvalue = [2, 238]\nclass = y[1]"] ;
142 -> 154 ;
155 [label="gini = 0.0\nsamples = 148\nvalue = [0, 148]\nclass = y[1]"] ;
154 -> 155 ;
156 [label="X[3] <= -0.764\ngini = 0.043\nsamples = 92\nvalue = [2, 90]\nclass = y[1]"] ;
154 -> 156 ;
157 [label="gini = 0.0\nsamples = 51\nvalue = [0, 51]\nclass = y[1]"] ;
156 -> 157 ;
158 [label="X[23] <= 0.5\ngini = 0.093\nsamples = 41\nvalue = [2, 39]\nclass = y[1]"] ;
156 -> 158 ;
159 [label="gini = 0.0\nsamples = 32\nvalue = [0, 32]\nclass = y[1]"] ;
158 -> 159 ;
160 [label="X[5] <= -0.314\ngini = 0.346\nsamples = 9\nvalue = [2, 7]\nclass = y[1]"] ;
158 -> 160 ;
161 [label="gini = 0.0\nsamples = 1\nvalue = [1, 0]\nclass = y[0]"] ;
160 -> 161 ;
162 [label="X[24] <= 0.5\ngini = 0.219\nsamples = 8\nvalue = [1, 7]\nclass = y[1]"] ;
160 -> 162 ;
163 [label="gini = 0.0\nsamples = 5\nvalue = [0, 5]\nclass = y[1]"] ;
162 -> 163 ;
164 [label="X[5] <= -0.052\ngini = 0.444\nsamples = 3\nvalue = [1, 2]\nclass = y[1]"] ;
162 -> 164 ;
165 [label="gini = 0.0\nsamples = 2\nvalue = [0, 2]\nclass = y[1]"] ;
164 -> 165 ;
166 [label="gini = 0.0\nsamples = 1\nvalue = [1, 0]\nclass = y[0]"] ;
164 -> 166 ;
167 [label="X[17] <= 0.5\ngini = 0.48\nsamples = 5\nvalue = [2, 3]\nclass = y[1]"] ;
141 -> 167 ;
168 [label="gini = 0.0\nsamples = 2\nvalue = [2, 0]\nclass = y[0]"] ;
167 -> 168 ;
169 [label="gini = 0.0\nsamples = 3\nvalue = [0, 3]\nclass = y[1]"] ;
167 -> 169 ;
170 [label="X[5] <= -0.577\ngini = 0.322\nsamples = 288\nvalue = [58, 230]\nclass = y[1]"] ;
70 -> 170 ;
171 [label="X[8] <= 0.051\ngini = 0.444\nsamples = 69\nvalue = [46, 23]\nclass = y[0]"] ;
170 -> 171 ;
172 [label="X[5] <= -0.839\ngini = 0.337\nsamples = 56\nvalue = [44, 12]\nclass = y[0]"] ;
171 -> 172 ;
173 [label="X[25] <= 0.5\ngini = 0.175\nsamples = 31\nvalue = [28, 3]\nclass = y[0]"] ;
172 -> 173 ;
174 [label="X[3] <= 0.067\ngini = 0.083\nsamples = 23\nvalue = [22, 1]\nclass = y[0]"] ;
173 -> 174 ;
175 [label="gini = 0.0\nsamples = 14\nvalue = [14, 0]\nclass = y[0]"] ;
174 -> 175 ;
176 [label="X[8] <= -0.769\ngini = 0.198\nsamples = 9\nvalue = [8, 1]\nclass = y[0]"] ;
174 -> 176 ;
177 [label="gini = 0.0\nsamples = 7\nvalue = [7, 0]\nclass = y[0]"] ;
176 -> 177 ;
178 [label="X[26] <= 0.5\ngini = 0.5\nsamples = 2\nvalue = [1, 1]\nclass = y[0]"] ;
176 -> 178 ;
179 [label="gini = 0.0\nsamples = 1\nvalue = [0, 1]\nclass = y[1]"] ;
178 -> 179 ;
180 [label="gini = 0.0\nsamples = 1\nvalue = [1, 0]\nclass = y[0]"] ;
178 -> 180 ;
181 [label="X[10] <= 0.5\ngini = 0.375\nsamples = 8\nvalue = [6, 2]\nclass = y[0]"] ;
173 -> 181 ;
182 [label="gini = 0.0\nsamples = 4\nvalue = [4, 0]\nclass = y[0]"] ;
181 -> 182 ;
183 [label="X[3] <= 0.067\ngini = 0.5\nsamples = 4\nvalue = [2, 2]\nclass = y[0]"] ;
181 -> 183 ;
184 [label="gini = 0.5\nsamples = 2\nvalue = [1, 1]\nclass = y[0]"] ;
183 -> 184 ;
185 [label="gini = 0.5\nsamples = 2\nvalue = [1, 1]\nclass = y[0]"] ;
183 -> 185 ;
186 [label="X[13] <= 0.5\ngini = 0.461\nsamples = 25\nvalue = [16, 9]\nclass = y[0]"] ;
172 -> 186 ;
187 [label="X[20] <= 0.5\ngini = 0.305\nsamples = 16\nvalue = [13, 3]\nclass = y[0]"] ;
186 -> 187 ;
188 [label="X[3] <= 0.067\ngini = 0.231\nsamples = 15\nvalue = [13, 2]\nclass = y[0]"] ;
187 -> 188 ;
189 [label="X[24] <= 0.5\ngini = 0.444\nsamples = 6\nvalue = [4, 2]\nclass = y[0]"] ;
188 -> 189 ;
190 [label="gini = 0.0\nsamples = 3\nvalue = [3, 0]\nclass = y[0]"] ;
189 -> 190 ;
191 [label="X[18] <= 0.5\ngini = 0.444\nsamples = 3\nvalue = [1, 2]\nclass = y[1]"] ;
189 -> 191 ;
192 [label="gini = 0.0\nsamples = 1\nvalue = [1, 0]\nclass = y[0]"] ;
191 -> 192 ;
193 [label="gini = 0.0\nsamples = 2\nvalue = [0, 2]\nclass = y[1]"] ;
191 -> 193 ;
194 [label="gini = 0.0\nsamples = 9\nvalue = [9, 0]\nclass = y[0]"] ;
188 -> 194 ;
195 [label="gini = 0.0\nsamples = 1\nvalue = [0, 1]\nclass = y[1]"] ;
187 -> 195 ;
196 [label="X[24] <= 0.5\ngini = 0.444\nsamples = 9\nvalue = [3, 6]\nclass = y[1]"] ;
186 -> 196 ;
197 [label="gini = 0.0\nsamples = 3\nvalue = [0, 3]\nclass = y[1]"] ;
196 -> 197 ;
198 [label="X[18] <= 0.5\ngini = 0.5\nsamples = 6\nvalue = [3, 3]\nclass = y[0]"] ;
196 -> 198 ;
199 [label="gini = 0.0\nsamples = 1\nvalue = [1, 0]\nclass = y[0]"] ;
198 -> 199 ;
200 [label="X[8] <= -0.769\ngini = 0.48\nsamples = 5\nvalue = [2, 3]\nclass = y[1]"] ;
198 -> 200 ;
201 [label="X[10] <= 0.5\ngini = 0.5\nsamples = 4\nvalue = [2, 2]\nclass = y[0]"] ;
200 -> 201 ;
202 [label="gini = 0.0\nsamples = 1\nvalue = [0, 1]\nclass = y[1]"] ;
201 -> 202 ;
203 [label="X[3] <= 0.067\ngini = 0.444\nsamples = 3\nvalue = [2, 1]\nclass = y[0]"] ;
201 -> 203 ;
204 [label="gini = 0.5\nsamples = 2\nvalue = [1, 1]\nclass = y[0]"] ;
203 -> 204 ;
205 [label="gini = 0.0\nsamples = 1\nvalue = [1, 0]\nclass = y[0]"] ;
203 -> 205 ;
206 [label="gini = 0.0\nsamples = 1\nvalue = [0, 1]\nclass = y[1]"] ;
200 -> 206 ;
207 [label="X[14] <= 0.5\ngini = 0.26\nsamples = 13\nvalue = [2, 11]\nclass = y[1]"] ;
171 -> 207 ;
208 [label="gini = 0.0\nsamples = 8\nvalue = [0, 8]\nclass = y[1]"] ;
207 -> 208 ;
209 [label="X[10] <= 0.5\ngini = 0.48\nsamples = 5\nvalue = [2, 3]\nclass = y[1]"] ;
207 -> 209 ;
210 [label="X[22] <= 0.5\ngini = 0.444\nsamples = 3\nvalue = [2, 1]\nclass = y[0]"] ;
209 -> 210 ;
211 [label="gini = 0.0\nsamples = 2\nvalue = [2, 0]\nclass = y[0]"] ;
210 -> 211 ;
212 [label="gini = 0.0\nsamples = 1\nvalue = [0, 1]\nclass = y[1]"] ;
210 -> 212 ;
213 [label="gini = 0.0\nsamples = 2\nvalue = [0, 2]\nclass = y[1]"] ;
209 -> 213 ;
214 [label="X[5] <= -0.314\ngini = 0.104\nsamples = 219\nvalue = [12, 207]\nclass = y[1]"] ;
170 -> 214 ;
215 [label="X[3] <= 0.067\ngini = 0.282\nsamples = 47\nvalue = [8, 39]\nclass = y[1]"] ;
214 -> 215 ;
216 [label="X[4] <= 0.558\ngini = 0.145\nsamples = 38\nvalue = [3, 35]\nclass = y[1]"] ;
215 -> 216 ;
217 [label="X[13] <= 0.5\ngini = 0.069\nsamples = 28\nvalue = [1, 27]\nclass = y[1]"] ;
216 -> 217 ;
218 [label="X[22] <= 0.5\ngini = 0.198\nsamples = 9\nvalue = [1, 8]\nclass = y[1]"] ;
217 -> 218 ;
219 [label="X[3] <= -0.764\ngini = 0.375\nsamples = 4\nvalue = [1, 3]\nclass = y[1]"] ;
218 -> 219 ;
220 [label="gini = 0.0\nsamples = 3\nvalue = [0, 3]\nclass = y[1]"] ;
219 -> 220 ;
221 [label="gini = 0.0\nsamples = 1\nvalue = [1, 0]\nclass = y[0]"] ;
219 -> 221 ;
222 [label="gini = 0.0\nsamples = 5\nvalue = [0, 5]\nclass = y[1]"] ;
218 -> 222 ;
223 [label="gini = 0.0\nsamples = 19\nvalue = [0, 19]\nclass = y[1]"] ;
217 -> 223 ;
224 [label="X[8] <= 0.87\ngini = 0.32\nsamples = 10\nvalue = [2, 8]\nclass = y[1]"] ;
216 -> 224 ;
225 [label="X[13] <= 0.5\ngini = 0.198\nsamples = 9\nvalue = [1, 8]\nclass = y[1]"] ;
224 -> 225 ;
226 [label="X[10] <= 0.5\ngini = 0.375\nsamples = 4\nvalue = [1, 3]\nclass = y[1]"] ;
225 -> 226 ;
227 [label="gini = 0.0\nsamples = 2\nvalue = [0, 2]\nclass = y[1]"] ;
226 -> 227 ;
228 [label="gini = 0.5\nsamples = 2\nvalue = [1, 1]\nclass = y[0]"] ;
226 -> 228 ;
229 [label="gini = 0.0\nsamples = 5\nvalue = [0, 5]\nclass = y[1]"] ;
225 -> 229 ;
230 [label="gini = 0.0\nsamples = 1\nvalue = [1, 0]\nclass = y[0]"] ;
224 -> 230 ;
231 [label="X[4] <= 0.558\ngini = 0.494\nsamples = 9\nvalue = [5, 4]\nclass = y[0]"] ;
215 -> 231 ;
232 [label="X[2] <= 0.2\ngini = 0.444\nsamples = 6\nvalue = [2, 4]\nclass = y[1]"] ;
231 -> 232 ;
233 [label="X[8] <= -0.769\ngini = 0.32\nsamples = 5\nvalue = [1, 4]\nclass = y[1]"] ;
232 -> 233 ;
234 [label="X[11] <= 0.5\ngini = 0.444\nsamples = 3\nvalue = [1, 2]\nclass = y[1]"] ;
233 -> 234 ;
235 [label="gini = 0.0\nsamples = 1\nvalue = [0, 1]\nclass = y[1]"] ;
234 -> 235 ;
236 [label="X[17] <= 0.5\ngini = 0.5\nsamples = 2\nvalue = [1, 1]\nclass = y[0]"] ;
234 -> 236 ;
237 [label="gini = 0.0\nsamples = 1\nvalue = [1, 0]\nclass = y[0]"] ;
236 -> 237 ;
238 [label="gini = 0.0\nsamples = 1\nvalue = [0, 1]\nclass = y[1]"] ;
236 -> 238 ;
239 [label="gini = 0.0\nsamples = 2\nvalue = [0, 2]\nclass = y[1]"] ;
233 -> 239 ;
240 [label="gini = 0.0\nsamples = 1\nvalue = [1, 0]\nclass = y[0]"] ;
232 -> 240 ;
241 [label="gini = 0.0\nsamples = 3\nvalue = [3, 0]\nclass = y[0]"] ;
231 -> 241 ;
242 [label="X[17] <= 0.5\ngini = 0.045\nsamples = 172\nvalue = [4, 168]\nclass = y[1]"] ;
214 -> 242 ;
243 [label="X[2] <= 0.2\ngini = 0.091\nsamples = 84\nvalue = [4, 80]\nclass = y[1]"] ;
242 -> 243 ;
244 [label="X[3] <= 0.067\ngini = 0.072\nsamples = 80\nvalue = [3, 77]\nclass = y[1]"] ;
243 -> 244 ;
245 [label="X[9] <= 0.587\ngini = 0.03\nsamples = 65\nvalue = [1, 64]\nclass = y[1]"] ;
244 -> 245 ;
246 [label="gini = 0.0\nsamples = 44\nvalue = [0, 44]\nclass = y[1]"] ;
245 -> 246 ;
247 [label="X[11] <= 0.5\ngini = 0.091\nsamples = 21\nvalue = [1, 20]\nclass = y[1]"] ;
245 -> 247 ;
248 [label="X[3] <= -0.764\ngini = 0.245\nsamples = 7\nvalue = [1, 6]\nclass = y[1]"] ;
247 -> 248 ;
249 [label="gini = 0.0\nsamples = 4\nvalue = [0, 4]\nclass = y[1]"] ;
248 -> 249 ;
250 [label="X[22] <= 0.5\ngini = 0.444\nsamples = 3\nvalue = [1, 2]\nclass = y[1]"] ;
248 -> 250 ;
251 [label="X[14] <= 0.5\ngini = 0.5\nsamples = 2\nvalue = [1, 1]\nclass = y[0]"] ;
250 -> 251 ;
252 [label="gini = 0.0\nsamples = 1\nvalue = [0, 1]\nclass = y[1]"] ;
251 -> 252 ;
253 [label="gini = 0.0\nsamples = 1\nvalue = [1, 0]\nclass = y[0]"] ;
251 -> 253 ;
254 [label="gini = 0.0\nsamples = 1\nvalue = [0, 1]\nclass = y[1]"] ;
250 -> 254 ;
255 [label="gini = 0.0\nsamples = 14\nvalue = [0, 14]\nclass = y[1]"] ;
247 -> 255 ;
256 [label="X[8] <= 0.051\ngini = 0.231\nsamples = 15\nvalue = [2, 13]\nclass = y[1]"] ;
244 -> 256 ;
257 [label="X[22] <= 0.5\ngini = 0.133\nsamples = 14\nvalue = [1, 13]\nclass = y[1]"] ;
256 -> 257 ;
258 [label="X[18] <= 0.5\ngini = 0.444\nsamples = 3\nvalue = [1, 2]\nclass = y[1]"] ;
257 -> 258 ;
259 [label="gini = 0.0\nsamples = 2\nvalue = [0, 2]\nclass = y[1]"] ;
258 -> 259 ;
260 [label="gini = 0.0\nsamples = 1\nvalue = [1, 0]\nclass = y[0]"] ;
258 -> 260 ;
261 [label="gini = 0.0\nsamples = 11\nvalue = [0, 11]\nclass = y[1]"] ;
257 -> 261 ;
262 [label="gini = 0.0\nsamples = 1\nvalue = [1, 0]\nclass = y[0]"] ;
256 -> 262 ;
263 [label="X[8] <= 0.461\ngini = 0.375\nsamples = 4\nvalue = [1, 3]\nclass = y[1]"] ;
243 -> 263 ;
264 [label="gini = 0.0\nsamples = 1\nvalue = [1, 0]\nclass = y[0]"] ;
263 -> 264 ;
265 [label="gini = 0.0\nsamples = 3\nvalue = [0, 3]\nclass = y[1]"] ;
263 -> 265 ;
266 [label="gini = 0.0\nsamples = 88\nvalue = [0, 88]\nclass = y[1]"] ;
242 -> 266 ;
267 [label="X[6] <= -0.404\ngini = 0.041\nsamples = 18645\nvalue = [18258, 387]\nclass = y[0]"] ;
1 -> 267 ;
268 [label="X[0] <= -0.088\ngini = 0.015\nsamples = 17572\nvalue = [17440, 132]\nclass = y[0]"] ;
267 -> 268 ;
269 [label="X[5] <= -0.314\ngini = 0.138\nsamples = 1274\nvalue = [1179, 95]\nclass = y[0]"] ;
268 -> 269 ;
270 [label="X[20] <= 0.5\ngini = 0.053\nsamples = 1181\nvalue = [1149, 32]\nclass = y[0]"] ;
269 -> 270 ;
271 [label="X[5] <= -0.577\ngini = 0.032\nsamples = 1162\nvalue = [1143, 19]\nclass = y[0]"] ;
270 -> 271 ;
272 [label="X[8] <= 0.87\ngini = 0.014\nsamples = 1112\nvalue = [1104, 8]\nclass = y[0]"] ;
271 -> 272 ;
273 [label="X[8] <= -0.769\ngini = 0.013\nsamples = 1107\nvalue = [1100, 7]\nclass = y[0]"] ;
272 -> 273 ;
274 [label="gini = 0.0\nsamples = 799\nvalue = [799, 0]\nclass = y[0]"] ;
273 -> 274 ;
275 [label="X[5] <= -0.839\ngini = 0.044\nsamples = 308\nvalue = [301, 7]\nclass = y[0]"] ;
273 -> 275 ;
276 [label="X[3] <= -0.764\ngini = 0.024\nsamples = 242\nvalue = [239, 3]\nclass = y[0]"] ;
275 -> 276 ;
277 [label="X[14] <= 0.5\ngini = 0.058\nsamples = 67\nvalue = [65, 2]\nclass = y[0]"] ;
276 -> 277 ;
278 [label="X[5] <= -1.364\ngini = 0.034\nsamples = 58\nvalue = [57, 1]\nclass = y[0]"] ;
277 -> 278 ;
279 [label="gini = 0.0\nsamples = 24\nvalue = [24, 0]\nclass = y[0]"] ;
278 -> 279 ;
280 [label="X[0] <= -0.355\ngini = 0.057\nsamples = 34\nvalue = [33, 1]\nclass = y[0]"] ;
278 -> 280 ;
281 [label="X[24] <= 0.5\ngini = 0.1\nsamples = 19\nvalue = [18, 1]\nclass = y[0]"] ;
280 -> 281 ;
282 [label="gini = 0.0\nsamples = 8\nvalue = [8, 0]\nclass = y[0]"] ;
281 -> 282 ;
283 [label="X[11] <= 0.5\ngini = 0.165\nsamples = 11\nvalue = [10, 1]\nclass = y[0]"] ;
281 -> 283 ;
284 [label="X[15] <= 0.5\ngini = 0.245\nsamples = 7\nvalue = [6, 1]\nclass = y[0]"] ;
283 -> 284 ;
285 [label="gini = 0.0\nsamples = 2\nvalue = [2, 0]\nclass = y[0]"] ;
284 -> 285 ;
286 [label="X[8] <= 0.051\ngini = 0.32\nsamples = 5\nvalue = [4, 1]\nclass = y[0]"] ;
284 -> 286 ;
287 [label="X[5] <= -1.102\ngini = 0.444\nsamples = 3\nvalue = [2, 1]\nclass = y[0]"] ;
286 -> 287 ;
288 [label="gini = 0.5\nsamples = 2\nvalue = [1, 1]\nclass = y[0]"] ;
287 -> 288 ;
289 [label="gini = 0.0\nsamples = 1\nvalue = [1, 0]\nclass = y[0]"] ;
287 -> 289 ;
290 [label="gini = 0.0\nsamples = 2\nvalue = [2, 0]\nclass = y[0]"] ;
286 -> 290 ;
291 [label="gini = 0.0\nsamples = 4\nvalue = [4, 0]\nclass = y[0]"] ;
283 -> 291 ;
292 [label="gini = 0.0\nsamples = 15\nvalue = [15, 0]\nclass = y[0]"] ;
280 -> 292 ;
293 [label="X[5] <= -1.102\ngini = 0.198\nsamples = 9\nvalue = [8, 1]\nclass = y[0]"] ;
277 -> 293 ;
294 [label="X[8] <= 0.051\ngini = 0.444\nsamples = 3\nvalue = [2, 1]\nclass = y[0]"] ;
293 -> 294 ;
295 [label="gini = 0.0\nsamples = 2\nvalue = [2, 0]\nclass = y[0]"] ;
294 -> 295 ;
296 [label="gini = 0.0\nsamples = 1\nvalue = [0, 1]\nclass = y[1]"] ;
294 -> 296 ;
297 [label="gini = 0.0\nsamples = 6\nvalue = [6, 0]\nclass = y[0]"] ;
293 -> 297 ;
298 [label="X[3] <= 0.067\ngini = 0.011\nsamples = 175\nvalue = [174, 1]\nclass = y[0]"] ;
276 -> 298 ;
299 [label="gini = 0.0\nsamples = 137\nvalue = [137, 0]\nclass = y[0]"] ;
298 -> 299 ;
300 [label="X[5] <= -1.102\ngini = 0.051\nsamples = 38\nvalue = [37, 1]\nclass = y[0]"] ;
298 -> 300 ;
301 [label="gini = 0.0\nsamples = 25\nvalue = [25, 0]\nclass = y[0]"] ;
300 -> 301 ;
302 [label="X[24] <= 0.5\ngini = 0.142\nsamples = 13\nvalue = [12, 1]\nclass = y[0]"] ;
300 -> 302 ;
303 [label="gini = 0.0\nsamples = 7\nvalue = [7, 0]\nclass = y[0]"] ;
302 -> 303 ;
304 [label="X[0] <= -0.355\ngini = 0.278\nsamples = 6\nvalue = [5, 1]\nclass = y[0]"] ;
302 -> 304 ;
305 [label="X[18] <= 0.5\ngini = 0.444\nsamples = 3\nvalue = [2, 1]\nclass = y[0]"] ;
304 -> 305 ;
306 [label="gini = 0.0\nsamples = 2\nvalue = [2, 0]\nclass = y[0]"] ;
305 -> 306 ;
307 [label="gini = 0.0\nsamples = 1\nvalue = [0, 1]\nclass = y[1]"] ;
305 -> 307 ;
308 [label="gini = 0.0\nsamples = 3\nvalue = [3, 0]\nclass = y[0]"] ;
304 -> 308 ;
309 [label="X[18] <= 0.5\ngini = 0.114\nsamples = 66\nvalue = [62, 4]\nclass = y[0]"] ;
275 -> 309 ;
310 [label="gini = 0.0\nsamples = 25\nvalue = [25, 0]\nclass = y[0]"] ;
309 -> 310 ;
311 [label="X[0] <= -0.355\ngini = 0.176\nsamples = 41\nvalue = [37, 4]\nclass = y[0]"] ;
309 -> 311 ;
312 [label="X[3] <= 0.067\ngini = 0.291\nsamples = 17\nvalue = [14, 3]\nclass = y[0]"] ;
311 -> 312 ;
313 [label="X[22] <= 0.5\ngini = 0.397\nsamples = 11\nvalue = [8, 3]\nclass = y[0]"] ;
312 -> 313 ;
314 [label="X[10] <= 0.5\ngini = 0.32\nsamples = 10\nvalue = [8, 2]\nclass = y[0]"] ;
313 -> 314 ;
315 [label="gini = 0.0\nsamples = 2\nvalue = [2, 0]\nclass = y[0]"] ;
314 -> 315 ;
316 [label="X[3] <= -0.764\ngini = 0.375\nsamples = 8\nvalue = [6, 2]\nclass = y[0]"] ;
314 -> 316 ;
317 [label="X[9] <= 0.587\ngini = 0.278\nsamples = 6\nvalue = [5, 1]\nclass = y[0]"] ;
316 -> 317 ;
318 [label="gini = 0.0\nsamples = 3\nvalue = [3, 0]\nclass = y[0]"] ;
317 -> 318 ;
319 [label="X[13] <= 0.5\ngini = 0.444\nsamples = 3\nvalue = [2, 1]\nclass = y[0]"] ;
317 -> 319 ;
320 [label="X[8] <= 0.051\ngini = 0.5\nsamples = 2\nvalue = [1, 1]\nclass = y[0]"] ;
319 -> 320 ;
321 [label="gini = 0.0\nsamples = 1\nvalue = [0, 1]\nclass = y[1]"] ;
320 -> 321 ;
322 [label="gini = 0.0\nsamples = 1\nvalue = [1, 0]\nclass = y[0]"] ;
320 -> 322 ;
323 [label="gini = 0.0\nsamples = 1\nvalue = [1, 0]\nclass = y[0]"] ;
319 -> 323 ;
324 [label="X[14] <= 0.5\ngini = 0.5\nsamples = 2\nvalue = [1, 1]\nclass = y[0]"] ;
316 -> 324 ;
325 [label="gini = 0.0\nsamples = 1\nvalue = [0, 1]\nclass = y[1]"] ;
324 -> 325 ;
326 [label="gini = 0.0\nsamples = 1\nvalue = [1, 0]\nclass = y[0]"] ;
324 -> 326 ;
327 [label="gini = 0.0\nsamples = 1\nvalue = [0, 1]\nclass = y[1]"] ;
313 -> 327 ;
328 [label="gini = 0.0\nsamples = 6\nvalue = [6, 0]\nclass = y[0]"] ;
312 -> 328 ;
329 [label="X[13] <= 0.5\ngini = 0.08\nsamples = 24\nvalue = [23, 1]\nclass = y[0]"] ;
311 -> 329 ;
330 [label="gini = 0.0\nsamples = 15\nvalue = [15, 0]\nclass = y[0]"] ;
329 -> 330 ;
331 [label="X[3] <= 0.067\ngini = 0.198\nsamples = 9\nvalue = [8, 1]\nclass = y[0]"] ;
329 -> 331 ;
332 [label="gini = 0.0\nsamples = 6\nvalue = [6, 0]\nclass = y[0]"] ;
331 -> 332 ;
333 [label="X[25] <= 0.5\ngini = 0.444\nsamples = 3\nvalue = [2, 1]\nclass = y[0]"] ;
331 -> 333 ;
334 [label="X[10] <= 0.5\ngini = 0.5\nsamples = 2\nvalue = [1, 1]\nclass = y[0]"] ;
333 -> 334 ;
335 [label="gini = 0.0\nsamples = 1\nvalue = [0, 1]\nclass = y[1]"] ;
334 -> 335 ;
336 [label="gini = 0.0\nsamples = 1\nvalue = [1, 0]\nclass = y[0]"] ;
334 -> 336 ;
337 [label="gini = 0.0\nsamples = 1\nvalue = [1, 0]\nclass = y[0]"] ;
333 -> 337 ;
338 [label="X[24] <= 0.5\ngini = 0.32\nsamples = 5\nvalue = [4, 1]\nclass = y[0]"] ;
272 -> 338 ;
339 [label="gini = 0.0\nsamples = 3\nvalue = [3, 0]\nclass = y[0]"] ;
338 -> 339 ;
340 [label="X[2] <= 0.2\ngini = 0.5\nsamples = 2\nvalue = [1, 1]\nclass = y[0]"] ;
338 -> 340 ;
341 [label="gini = 0.0\nsamples = 1\nvalue = [0, 1]\nclass = y[1]"] ;
340 -> 341 ;
342 [label="gini = 0.0\nsamples = 1\nvalue = [1, 0]\nclass = y[0]"] ;
340 -> 342 ;
343 [label="X[14] <= 0.5\ngini = 0.343\nsamples = 50\nvalue = [39, 11]\nclass = y[0]"] ;
271 -> 343 ;
344 [label="X[22] <= 0.5\ngini = 0.499\nsamples = 21\nvalue = [10, 11]\nclass = y[1]"] ;
343 -> 344 ;
345 [label="X[18] <= 0.5\ngini = 0.198\nsamples = 9\nvalue = [1, 8]\nclass = y[1]"] ;
344 -> 345 ;
346 [label="X[4] <= 0.558\ngini = 0.444\nsamples = 3\nvalue = [1, 2]\nclass = y[1]"] ;
345 -> 346 ;
347 [label="gini = 0.5\nsamples = 2\nvalue = [1, 1]\nclass = y[0]"] ;
346 -> 347 ;
348 [label="gini = 0.0\nsamples = 1\nvalue = [0, 1]\nclass = y[1]"] ;
346 -> 348 ;
349 [label="gini = 0.0\nsamples = 6\nvalue = [0, 6]\nclass = y[1]"] ;
345 -> 349 ;
350 [label="X[19] <= 0.5\ngini = 0.375\nsamples = 12\nvalue = [9, 3]\nclass = y[0]"] ;
344 -> 350 ;
351 [label="X[10] <= 0.5\ngini = 0.5\nsamples = 6\nvalue = [3, 3]\nclass = y[0]"] ;
350 -> 351 ;
352 [label="gini = 0.0\nsamples = 3\nvalue = [3, 0]\nclass = y[0]"] ;
351 -> 352 ;
353 [label="gini = 0.0\nsamples = 3\nvalue = [0, 3]\nclass = y[1]"] ;
351 -> 353 ;
354 [label="gini = 0.0\nsamples = 6\nvalue = [6, 0]\nclass = y[0]"] ;
350 -> 354 ;
355 [label="gini = 0.0\nsamples = 29\nvalue = [29, 0]\nclass = y[0]"] ;
343 -> 355 ;
356 [label="X[3] <= 0.899\ngini = 0.432\nsamples = 19\nvalue = [6, 13]\nclass = y[1]"] ;
270 -> 356 ;
357 [label="X[1] <= -0.426\ngini = 0.36\nsamples = 17\nvalue = [4, 13]\nclass = y[1]"] ;
356 -> 357 ;
358 [label="X[10] <= 0.5\ngini = 0.245\nsamples = 14\nvalue = [2, 12]\nclass = y[1]"] ;
357 -> 358 ;
359 [label="X[5] <= -0.577\ngini = 0.444\nsamples = 6\nvalue = [2, 4]\nclass = y[1]"] ;
358 -> 359 ;
360 [label="X[0] <= -0.355\ngini = 0.444\nsamples = 3\nvalue = [2, 1]\nclass = y[0]"] ;
359 -> 360 ;
361 [label="gini = 0.0\nsamples = 1\nvalue = [0, 1]\nclass = y[1]"] ;
360 -> 361 ;
362 [label="gini = 0.0\nsamples = 2\nvalue = [2, 0]\nclass = y[0]"] ;
360 -> 362 ;
363 [label="gini = 0.0\nsamples = 3\nvalue = [0, 3]\nclass = y[1]"] ;
359 -> 363 ;
364 [label="gini = 0.0\nsamples = 8\nvalue = [0, 8]\nclass = y[1]"] ;
358 -> 364 ;
365 [label="X[5] <= -0.708\ngini = 0.444\nsamples = 3\nvalue = [2, 1]\nclass = y[0]"] ;
357 -> 365 ;
366 [label="gini = 0.0\nsamples = 1\nvalue = [0, 1]\nclass = y[1]"] ;
365 -> 366 ;
367 [label="gini = 0.0\nsamples = 2\nvalue = [2, 0]\nclass = y[0]"] ;
365 -> 367 ;
368 [label="gini = 0.0\nsamples = 2\nvalue = [2, 0]\nclass = y[0]"] ;
356 -> 368 ;
369 [label="X[2] <= 0.2\ngini = 0.437\nsamples = 93\nvalue = [30, 63]\nclass = y[1]"] ;
269 -> 369 ;
370 [label="X[16] <= 0.5\ngini = 0.287\nsamples = 69\nvalue = [12, 57]\nclass = y[1]"] ;
369 -> 370 ;
371 [label="X[8] <= -0.769\ngini = 0.16\nsamples = 57\nvalue = [5, 52]\nclass = y[1]"] ;
370 -> 371 ;
372 [label="X[7] <= 0.124\ngini = 0.5\nsamples = 6\nvalue = [3, 3]\nclass = y[0]"] ;
371 -> 372 ;
373 [label="X[4] <= 0.558\ngini = 0.375\nsamples = 4\nvalue = [3, 1]\nclass = y[0]"] ;
372 -> 373 ;
374 [label="gini = 0.0\nsamples = 3\nvalue = [3, 0]\nclass = y[0]"] ;
373 -> 374 ;
375 [label="gini = 0.0\nsamples = 1\nvalue = [0, 1]\nclass = y[1]"] ;
373 -> 375 ;
376 [label="gini = 0.0\nsamples = 2\nvalue = [0, 2]\nclass = y[1]"] ;
372 -> 376 ;
377 [label="X[13] <= 0.5\ngini = 0.075\nsamples = 51\nvalue = [2, 49]\nclass = y[1]"] ;
371 -> 377 ;
378 [label="X[8] <= 0.051\ngini = 0.188\nsamples = 19\nvalue = [2, 17]\nclass = y[1]"] ;
377 -> 378 ;
379 [label="X[0] <= -0.355\ngini = 0.444\nsamples = 6\nvalue = [2, 4]\nclass = y[1]"] ;
378 -> 379 ;
380 [label="X[22] <= 0.5\ngini = 0.444\nsamples = 3\nvalue = [2, 1]\nclass = y[0]"] ;
379 -> 380 ;
381 [label="gini = 0.0\nsamples = 2\nvalue = [2, 0]\nclass = y[0]"] ;
380 -> 381 ;
382 [label="gini = 0.0\nsamples = 1\nvalue = [0, 1]\nclass = y[1]"] ;
380 -> 382 ;
383 [label="gini = 0.0\nsamples = 3\nvalue = [0, 3]\nclass = y[1]"] ;
379 -> 383 ;
384 [label="gini = 0.0\nsamples = 13\nvalue = [0, 13]\nclass = y[1]"] ;
378 -> 384 ;
385 [label="gini = 0.0\nsamples = 32\nvalue = [0, 32]\nclass = y[1]"] ;
377 -> 385 ;
386 [label="X[8] <= 0.051\ngini = 0.486\nsamples = 12\nvalue = [7, 5]\nclass = y[0]"] ;
370 -> 386 ;
387 [label="X[18] <= 0.5\ngini = 0.32\nsamples = 5\nvalue = [1, 4]\nclass = y[1]"] ;
386 -> 387 ;
388 [label="gini = 0.0\nsamples = 4\nvalue = [0, 4]\nclass = y[1]"] ;
387 -> 388 ;
389 [label="gini = 0.0\nsamples = 1\nvalue = [1, 0]\nclass = y[0]"] ;
387 -> 389 ;
390 [label="X[10] <= 0.5\ngini = 0.245\nsamples = 7\nvalue = [6, 1]\nclass = y[0]"] ;
386 -> 390 ;
391 [label="gini = 0.0\nsamples = 4\nvalue = [4, 0]\nclass = y[0]"] ;
390 -> 391 ;
392 [label="X[9] <= 0.587\ngini = 0.444\nsamples = 3\nvalue = [2, 1]\nclass = y[0]"] ;
390 -> 392 ;
393 [label="gini = 0.0\nsamples = 1\nvalue = [0, 1]\nclass = y[1]"] ;
392 -> 393 ;
394 [label="gini = 0.0\nsamples = 2\nvalue = [2, 0]\nclass = y[0]"] ;
392 -> 394 ;
395 [label="X[7] <= 0.124\ngini = 0.375\nsamples = 24\nvalue = [18, 6]\nclass = y[0]"] ;
369 -> 395 ;
396 [label="X[2] <= 1.897\ngini = 0.255\nsamples = 20\nvalue = [17, 3]\nclass = y[0]"] ;
395 -> 396 ;
397 [label="X[14] <= 0.5\ngini = 0.188\nsamples = 19\nvalue = [17, 2]\nclass = y[0]"] ;
396 -> 397 ;
398 [label="X[3] <= -0.764\ngini = 0.48\nsamples = 5\nvalue = [3, 2]\nclass = y[0]"] ;
397 -> 398 ;
399 [label="gini = 0.0\nsamples = 1\nvalue = [0, 1]\nclass = y[1]"] ;
398 -> 399 ;
400 [label="X[23] <= 0.5\ngini = 0.375\nsamples = 4\nvalue = [3, 1]\nclass = y[0]"] ;
398 -> 400 ;
401 [label="X[24] <= 0.5\ngini = 0.5\nsamples = 2\nvalue = [1, 1]\nclass = y[0]"] ;
400 -> 401 ;
402 [label="gini = 0.0\nsamples = 1\nvalue = [1, 0]\nclass = y[0]"] ;
401 -> 402 ;
403 [label="gini = 0.0\nsamples = 1\nvalue = [0, 1]\nclass = y[1]"] ;
401 -> 403 ;
404 [label="gini = 0.0\nsamples = 2\nvalue = [2, 0]\nclass = y[0]"] ;
400 -> 404 ;
405 [label="gini = 0.0\nsamples = 14\nvalue = [14, 0]\nclass = y[0]"] ;
397 -> 405 ;
406 [label="gini = 0.0\nsamples = 1\nvalue = [0, 1]\nclass = y[1]"] ;
396 -> 406 ;
407 [label="X[5] <= -0.052\ngini = 0.375\nsamples = 4\nvalue = [1, 3]\nclass = y[1]"] ;
395 -> 407 ;
408 [label="gini = 0.0\nsamples = 1\nvalue = [1, 0]\nclass = y[0]"] ;
407 -> 408 ;
409 [label="gini = 0.0\nsamples = 3\nvalue = [0, 3]\nclass = y[1]"] ;
407 -> 409 ;
410 [label="X[0] <= 0.18\ngini = 0.005\nsamples = 16298\nvalue = [16261, 37]\nclass = y[0]"] ;
268 -> 410 ;
411 [label="X[7] <= 0.124\ngini = 0.055\nsamples = 883\nvalue = [858, 25]\nclass = y[0]"] ;
410 -> 411 ;
412 [label="X[5] <= -0.052\ngini = 0.024\nsamples = 833\nvalue = [823, 10]\nclass = y[0]"] ;
411 -> 412 ;
413 [label="X[2] <= 1.897\ngini = 0.019\nsamples = 818\nvalue = [810, 8]\nclass = y[0]"] ;
412 -> 413 ;
414 [label="X[5] <= -0.839\ngini = 0.017\nsamples = 813\nvalue = [806, 7]\nclass = y[0]"] ;
413 -> 414 ;
415 [label="X[11] <= 0.5\ngini = 0.007\nsamples = 608\nvalue = [606, 2]\nclass = y[0]"] ;
414 -> 415 ;
416 [label="gini = 0.0\nsamples = 416\nvalue = [416, 0]\nclass = y[0]"] ;
415 -> 416 ;
417 [label="X[25] <= 0.5\ngini = 0.021\nsamples = 192\nvalue = [190, 2]\nclass = y[0]"] ;
415 -> 417 ;
418 [label="gini = 0.0\nsamples = 127\nvalue = [127, 0]\nclass = y[0]"] ;
417 -> 418 ;
419 [label="X[3] <= 0.067\ngini = 0.06\nsamples = 65\nvalue = [63, 2]\nclass = y[0]"] ;
417 -> 419 ;
420 [label="gini = 0.0\nsamples = 31\nvalue = [31, 0]\nclass = y[0]"] ;
419 -> 420 ;
421 [label="X[8] <= -0.769\ngini = 0.111\nsamples = 34\nvalue = [32, 2]\nclass = y[0]"] ;
419 -> 421 ;
422 [label="X[15] <= 0.5\ngini = 0.062\nsamples = 31\nvalue = [30, 1]\nclass = y[0]"] ;
421 -> 422 ;
423 [label="X[5] <= -1.364\ngini = 0.142\nsamples = 13\nvalue = [12, 1]\nclass = y[0]"] ;
422 -> 423 ;
424 [label="gini = 0.32\nsamples = 5\nvalue = [4, 1]\nclass = y[0]"] ;
423 -> 424 ;
425 [label="gini = 0.0\nsamples = 8\nvalue = [8, 0]\nclass = y[0]"] ;
423 -> 425 ;
426 [label="gini = 0.0\nsamples = 18\nvalue = [18, 0]\nclass = y[0]"] ;
422 -> 426 ;
427 [label="X[5] <= -1.102\ngini = 0.444\nsamples = 3\nvalue = [2, 1]\nclass = y[0]"] ;
421 -> 427 ;
428 [label="gini = 0.0\nsamples = 2\nvalue = [2, 0]\nclass = y[0]"] ;
427 -> 428 ;
429 [label="gini = 0.0\nsamples = 1\nvalue = [0, 1]\nclass = y[1]"] ;
427 -> 429 ;
430 [label="X[15] <= 0.5\ngini = 0.048\nsamples = 205\nvalue = [200, 5]\nclass = y[0]"] ;
414 -> 430 ;
431 [label="X[3] <= 0.067\ngini = 0.013\nsamples = 148\nvalue = [147, 1]\nclass = y[0]"] ;
430 -> 431 ;
432 [label="X[8] <= 0.051\ngini = 0.036\nsamples = 55\nvalue = [54, 1]\nclass = y[0]"] ;
431 -> 432 ;
433 [label="X[23] <= 0.5\ngini = 0.074\nsamples = 26\nvalue = [25, 1]\nclass = y[0]"] ;
432 -> 433 ;
434 [label="gini = 0.0\nsamples = 13\nvalue = [13, 0]\nclass = y[0]"] ;
433 -> 434 ;
435 [label="X[24] <= 0.5\ngini = 0.142\nsamples = 13\nvalue = [12, 1]\nclass = y[0]"] ;
433 -> 435 ;
436 [label="gini = 0.0\nsamples = 6\nvalue = [6, 0]\nclass = y[0]"] ;
435 -> 436 ;
437 [label="X[5] <= -0.577\ngini = 0.245\nsamples = 7\nvalue = [6, 1]\nclass = y[0]"] ;
435 -> 437 ;
438 [label="X[11] <= 0.5\ngini = 0.375\nsamples = 4\nvalue = [3, 1]\nclass = y[0]"] ;
437 -> 438 ;
439 [label="gini = 0.5\nsamples = 2\nvalue = [1, 1]\nclass = y[0]"] ;
438 -> 439 ;
440 [label="gini = 0.0\nsamples = 2\nvalue = [2, 0]\nclass = y[0]"] ;
438 -> 440 ;
441 [label="gini = 0.0\nsamples = 3\nvalue = [3, 0]\nclass = y[0]"] ;
437 -> 441 ;
442 [label="gini = 0.0\nsamples = 29\nvalue = [29, 0]\nclass = y[0]"] ;
432 -> 442 ;
443 [label="gini = 0.0\nsamples = 93\nvalue = [93, 0]\nclass = y[0]"] ;
431 -> 443 ;
444 [label="X[24] <= 0.5\ngini = 0.131\nsamples = 57\nvalue = [53, 4]\nclass = y[0]"] ;
430 -> 444 ;
445 [label="gini = 0.0\nsamples = 22\nvalue = [22, 0]\nclass = y[0]"] ;
444 -> 445 ;
446 [label="X[3] <= 0.067\ngini = 0.202\nsamples = 35\nvalue = [31, 4]\nclass = y[0]"] ;
444 -> 446 ;
447 [label="gini = 0.0\nsamples = 15\nvalue = [15, 0]\nclass = y[0]"] ;
446 -> 447 ;
448 [label="X[3] <= 0.899\ngini = 0.32\nsamples = 20\nvalue = [16, 4]\nclass = y[0]"] ;
446 -> 448 ;
449 [label="X[18] <= 0.5\ngini = 0.426\nsamples = 13\nvalue = [9, 4]\nclass = y[0]"] ;
448 -> 449 ;
450 [label="X[23] <= 0.5\ngini = 0.278\nsamples = 6\nvalue = [5, 1]\nclass = y[0]"] ;
449 -> 450 ;
451 [label="gini = 0.0\nsamples = 3\nvalue = [3, 0]\nclass = y[0]"] ;
450 -> 451 ;
452 [label="X[10] <= 0.5\ngini = 0.444\nsamples = 3\nvalue = [2, 1]\nclass = y[0]"] ;
450 -> 452 ;
453 [label="gini = 0.0\nsamples = 1\nvalue = [1, 0]\nclass = y[0]"] ;
452 -> 453 ;
454 [label="X[5] <= -0.577\ngini = 0.5\nsamples = 2\nvalue = [1, 1]\nclass = y[0]"] ;
452 -> 454 ;
455 [label="gini = 0.0\nsamples = 1\nvalue = [1, 0]\nclass = y[0]"] ;
454 -> 455 ;
456 [label="gini = 0.0\nsamples = 1\nvalue = [0, 1]\nclass = y[1]"] ;
454 -> 456 ;
457 [label="X[13] <= 0.5\ngini = 0.49\nsamples = 7\nvalue = [4, 3]\nclass = y[0]"] ;
449 -> 457 ;
458 [label="gini = 0.0\nsamples = 2\nvalue = [2, 0]\nclass = y[0]"] ;
457 -> 458 ;
459 [label="X[8] <= -0.769\ngini = 0.48\nsamples = 5\nvalue = [2, 3]\nclass = y[1]"] ;
457 -> 459 ;
460 [label="gini = 0.0\nsamples = 2\nvalue = [0, 2]\nclass = y[1]"] ;
459 -> 460 ;
461 [label="X[22] <= 0.5\ngini = 0.444\nsamples = 3\nvalue = [2, 1]\nclass = y[0]"] ;
459 -> 461 ;
462 [label="gini = 0.0\nsamples = 1\nvalue = [0, 1]\nclass = y[1]"] ;
461 -> 462 ;
463 [label="gini = 0.0\nsamples = 2\nvalue = [2, 0]\nclass = y[0]"] ;
461 -> 463 ;
464 [label="gini = 0.0\nsamples = 7\nvalue = [7, 0]\nclass = y[0]"] ;
448 -> 464 ;
465 [label="X[3] <= 1.731\ngini = 0.32\nsamples = 5\nvalue = [4, 1]\nclass = y[0]"] ;
413 -> 465 ;
466 [label="gini = 0.0\nsamples = 4\nvalue = [4, 0]\nclass = y[0]"] ;
465 -> 466 ;
467 [label="gini = 0.0\nsamples = 1\nvalue = [0, 1]\nclass = y[1]"] ;
465 -> 467 ;
468 [label="X[16] <= 0.5\ngini = 0.231\nsamples = 15\nvalue = [13, 2]\nclass = y[0]"] ;
412 -> 468 ;
469 [label="X[19] <= 0.5\ngini = 0.444\nsamples = 3\nvalue = [1, 2]\nclass = y[1]"] ;
468 -> 469 ;
470 [label="gini = 0.0\nsamples = 2\nvalue = [0, 2]\nclass = y[1]"] ;
469 -> 470 ;
471 [label="gini = 0.0\nsamples = 1\nvalue = [1, 0]\nclass = y[0]"] ;
469 -> 471 ;
472 [label="gini = 0.0\nsamples = 12\nvalue = [12, 0]\nclass = y[0]"] ;
468 -> 472 ;
473 [label="X[5] <= -0.052\ngini = 0.42\nsamples = 50\nvalue = [35, 15]\nclass = y[0]"] ;
411 -> 473 ;
474 [label="X[15] <= 0.5\ngini = 0.32\nsamples = 40\nvalue = [32, 8]\nclass = y[0]"] ;
473 -> 474 ;
475 [label="X[25] <= 0.5\ngini = 0.185\nsamples = 29\nvalue = [26, 3]\nclass = y[0]"] ;
474 -> 475 ;
476 [label="X[22] <= 0.5\ngini = 0.142\nsamples = 26\nvalue = [24, 2]\nclass = y[0]"] ;
475 -> 476 ;
477 [label="gini = 0.0\nsamples = 14\nvalue = [14, 0]\nclass = y[0]"] ;
476 -> 477 ;
478 [label="X[7] <= 1.747\ngini = 0.278\nsamples = 12\nvalue = [10, 2]\nclass = y[0]"] ;
476 -> 478 ;
479 [label="X[5] <= -0.577\ngini = 0.165\nsamples = 11\nvalue = [10, 1]\nclass = y[0]"] ;
478 -> 479 ;
480 [label="gini = 0.0\nsamples = 7\nvalue = [7, 0]\nclass = y[0]"] ;
479 -> 480 ;
481 [label="X[5] <= -0.314\ngini = 0.375\nsamples = 4\nvalue = [3, 1]\nclass = y[0]"] ;
479 -> 481 ;
482 [label="gini = 0.0\nsamples = 1\nvalue = [0, 1]\nclass = y[1]"] ;
481 -> 482 ;
483 [label="gini = 0.0\nsamples = 3\nvalue = [3, 0]\nclass = y[0]"] ;
481 -> 483 ;
484 [label="gini = 0.0\nsamples = 1\nvalue = [0, 1]\nclass = y[1]"] ;
478 -> 484 ;
485 [label="X[8] <= 0.461\ngini = 0.444\nsamples = 3\nvalue = [2, 1]\nclass = y[0]"] ;
475 -> 485 ;
486 [label="gini = 0.0\nsamples = 2\nvalue = [2, 0]\nclass = y[0]"] ;
485 -> 486 ;
487 [label="gini = 0.0\nsamples = 1\nvalue = [0, 1]\nclass = y[1]"] ;
485 -> 487 ;
488 [label="X[5] <= -0.577\ngini = 0.496\nsamples = 11\nvalue = [6, 5]\nclass = y[0]"] ;
474 -> 488 ;
489 [label="gini = 0.0\nsamples = 4\nvalue = [4, 0]\nclass = y[0]"] ;
488 -> 489 ;
490 [label="X[10] <= 0.5\ngini = 0.408\nsamples = 7\nvalue = [2, 5]\nclass = y[1]"] ;
488 -> 490 ;
491 [label="gini = 0.0\nsamples = 1\nvalue = [1, 0]\nclass = y[0]"] ;
490 -> 491 ;
492 [label="X[13] <= 0.5\ngini = 0.278\nsamples = 6\nvalue = [1, 5]\nclass = y[1]"] ;
490 -> 492 ;
493 [label="gini = 0.0\nsamples = 1\nvalue = [1, 0]\nclass = y[0]"] ;
492 -> 493 ;
494 [label="gini = 0.0\nsamples = 5\nvalue = [0, 5]\nclass = y[1]"] ;
492 -> 494 ;
495 [label="X[16] <= 0.5\ngini = 0.42\nsamples = 10\nvalue = [3, 7]\nclass = y[1]"] ;
473 -> 495 ;
496 [label="gini = 0.0\nsamples = 4\nvalue = [0, 4]\nclass = y[1]"] ;
495 -> 496 ;
497 [label="X[8] <= 0.87\ngini = 0.5\nsamples = 6\nvalue = [3, 3]\nclass = y[0]"] ;
495 -> 497 ;
498 [label="X[2] <= 0.2\ngini = 0.375\nsamples = 4\nvalue = [1, 3]\nclass = y[1]"] ;
497 -> 498 ;
499 [label="gini = 0.0\nsamples = 3\nvalue = [0, 3]\nclass = y[1]"] ;
498 -> 499 ;
500 [label="gini = 0.0\nsamples = 1\nvalue = [1, 0]\nclass = y[0]"] ;
498 -> 500 ;
501 [label="gini = 0.0\nsamples = 2\nvalue = [2, 0]\nclass = y[0]"] ;
497 -> 501 ;
502 [label="X[5] <= -0.314\ngini = 0.002\nsamples = 15415\nvalue = [15403, 12]\nclass = y[0]"] ;
410 -> 502 ;
503 [label="X[2] <= 3.595\ngini = 0.001\nsamples = 13634\nvalue = [13629, 5]\nclass = y[0]"] ;
502 -> 503 ;
504 [label="X[7] <= 1.747\ngini = 0.001\nsamples = 13603\nvalue = [13599, 4]\nclass = y[0]"] ;
503 -> 504 ;
505 [label="X[1] <= -0.426\ngini = 0.0\nsamples = 13539\nvalue = [13536, 3]\nclass = y[0]"] ;
504 -> 505 ;
506 [label="X[5] <= -0.577\ngini = 0.01\nsamples = 208\nvalue = [207, 1]\nclass = y[0]"] ;
505 -> 506 ;
507 [label="gini = 0.0\nsamples = 200\nvalue = [200, 0]\nclass = y[0]"] ;
506 -> 507 ;
508 [label="X[2] <= 0.2\ngini = 0.219\nsamples = 8\nvalue = [7, 1]\nclass = y[0]"] ;
506 -> 508 ;
509 [label="gini = 0.0\nsamples = 1\nvalue = [0, 1]\nclass = y[1]"] ;
508 -> 509 ;
510 [label="gini = 0.0\nsamples = 7\nvalue = [7, 0]\nclass = y[0]"] ;
508 -> 510 ;
511 [label="X[0] <= 0.447\ngini = 0.0\nsamples = 13331\nvalue = [13329, 2]\nclass = y[0]"] ;
505 -> 511 ;
512 [label="X[14] <= 0.5\ngini = 0.002\nsamples = 1120\nvalue = [1119, 1]\nclass = y[0]"] ;
511 -> 512 ;
513 [label="gini = 0.0\nsamples = 833\nvalue = [833, 0]\nclass = y[0]"] ;
512 -> 513 ;
514 [label="X[22] <= 0.5\ngini = 0.007\nsamples = 287\nvalue = [286, 1]\nclass = y[0]"] ;
512 -> 514 ;
515 [label="gini = 0.0\nsamples = 149\nvalue = [149, 0]\nclass = y[0]"] ;
514 -> 515 ;
516 [label="X[8] <= -0.769\ngini = 0.014\nsamples = 138\nvalue = [137, 1]\nclass = y[0]"] ;
514 -> 516 ;
517 [label="gini = 0.0\nsamples = 89\nvalue = [89, 0]\nclass = y[0]"] ;
516 -> 517 ;
518 [label="X[10] <= 0.5\ngini = 0.04\nsamples = 49\nvalue = [48, 1]\nclass = y[0]"] ;
516 -> 518 ;
519 [label="gini = 0.0\nsamples = 24\nvalue = [24, 0]\nclass = y[0]"] ;
518 -> 519 ;
520 [label="X[5] <= -0.577\ngini = 0.077\nsamples = 25\nvalue = [24, 1]\nclass = y[0]"] ;
518 -> 520 ;
521 [label="X[3] <= 0.899\ngini = 0.153\nsamples = 12\nvalue = [11, 1]\nclass = y[0]"] ;
520 -> 521 ;
522 [label="X[5] <= -0.839\ngini = 0.278\nsamples = 6\nvalue = [5, 1]\nclass = y[0]"] ;
521 -> 522 ;
523 [label="gini = 0.0\nsamples = 3\nvalue = [3, 0]\nclass = y[0]"] ;
522 -> 523 ;
524 [label="X[8] <= 0.461\ngini = 0.444\nsamples = 3\nvalue = [2, 1]\nclass = y[0]"] ;
522 -> 524 ;
525 [label="gini = 0.5\nsamples = 2\nvalue = [1, 1]\nclass = y[0]"] ;
524 -> 525 ;
526 [label="gini = 0.0\nsamples = 1\nvalue = [1, 0]\nclass = y[0]"] ;
524 -> 526 ;
527 [label="gini = 0.0\nsamples = 6\nvalue = [6, 0]\nclass = y[0]"] ;
521 -> 527 ;
528 [label="gini = 0.0\nsamples = 13\nvalue = [13, 0]\nclass = y[0]"] ;
520 -> 528 ;
529 [label="X[5] <= -0.839\ngini = 0.0\nsamples = 12211\nvalue = [12210, 1]\nclass = y[0]"] ;
511 -> 529 ;
530 [label="gini = 0.0\nsamples = 8288\nvalue = [8288, 0]\nclass = y[0]"] ;
529 -> 530 ;
531 [label="X[0] <= 1.249\ngini = 0.001\nsamples = 3923\nvalue = [3922, 1]\nclass = y[0]"] ;
529 -> 531 ;
532 [label="gini = 0.0\nsamples = 2884\nvalue = [2884, 0]\nclass = y[0]"] ;
531 -> 532 ;
533 [label="X[1] <= 1.154\ngini = 0.002\nsamples = 1039\nvalue = [1038, 1]\nclass = y[0]"] ;
531 -> 533 ;
534 [label="X[8] <= -0.769\ngini = 0.012\nsamples = 171\nvalue = [170, 1]\nclass = y[0]"] ;
533 -> 534 ;
535 [label="X[3] <= 0.899\ngini = 0.033\nsamples = 59\nvalue = [58, 1]\nclass = y[0]"] ;
534 -> 535 ;
536 [label="X[24] <= 0.5\ngini = 0.087\nsamples = 22\nvalue = [21, 1]\nclass = y[0]"] ;
535 -> 536 ;
537 [label="gini = 0.0\nsamples = 13\nvalue = [13, 0]\nclass = y[0]"] ;
536 -> 537 ;
538 [label="X[2] <= 0.2\ngini = 0.198\nsamples = 9\nvalue = [8, 1]\nclass = y[0]"] ;
536 -> 538 ;
539 [label="gini = 0.0\nsamples = 3\nvalue = [3, 0]\nclass = y[0]"] ;
538 -> 539 ;
540 [label="X[10] <= 0.5\ngini = 0.278\nsamples = 6\nvalue = [5, 1]\nclass = y[0]"] ;
538 -> 540 ;
541 [label="gini = 0.0\nsamples = 2\nvalue = [2, 0]\nclass = y[0]"] ;
540 -> 541 ;
542 [label="X[5] <= -0.577\ngini = 0.375\nsamples = 4\nvalue = [3, 1]\nclass = y[0]"] ;
540 -> 542 ;
543 [label="X[1] <= 0.364\ngini = 0.444\nsamples = 3\nvalue = [2, 1]\nclass = y[0]"] ;
542 -> 543 ;
544 [label="gini = 0.0\nsamples = 1\nvalue = [1, 0]\nclass = y[0]"] ;
543 -> 544 ;
545 [label="X[3] <= 0.067\ngini = 0.5\nsamples = 2\nvalue = [1, 1]\nclass = y[0]"] ;
543 -> 545 ;
546 [label="gini = 0.0\nsamples = 1\nvalue = [1, 0]\nclass = y[0]"] ;
545 -> 546 ;
547 [label="gini = 0.0\nsamples = 1\nvalue = [0, 1]\nclass = y[1]"] ;
545 -> 547 ;
548 [label="gini = 0.0\nsamples = 1\nvalue = [1, 0]\nclass = y[0]"] ;
542 -> 548 ;
549 [label="gini = 0.0\nsamples = 37\nvalue = [37, 0]\nclass = y[0]"] ;
535 -> 549 ;
550 [label="gini = 0.0\nsamples = 112\nvalue = [112, 0]\nclass = y[0]"] ;
534 -> 550 ;
551 [label="gini = 0.0\nsamples = 868\nvalue = [868, 0]\nclass = y[0]"] ;
533 -> 551 ;
552 [label="X[1] <= 2.734\ngini = 0.031\nsamples = 64\nvalue = [63, 1]\nclass = y[0]"] ;
504 -> 552 ;
553 [label="gini = 0.0\nsamples = 55\nvalue = [55, 0]\nclass = y[0]"] ;
552 -> 553 ;
554 [label="X[0] <= 1.249\ngini = 0.198\nsamples = 9\nvalue = [8, 1]\nclass = y[0]"] ;
552 -> 554 ;
555 [label="X[22] <= 0.5\ngini = 0.444\nsamples = 3\nvalue = [2, 1]\nclass = y[0]"] ;
554 -> 555 ;
556 [label="gini = 0.0\nsamples = 2\nvalue = [2, 0]\nclass = y[0]"] ;
555 -> 556 ;
557 [label="gini = 0.0\nsamples = 1\nvalue = [0, 1]\nclass = y[1]"] ;
555 -> 557 ;
558 [label="gini = 0.0\nsamples = 6\nvalue = [6, 0]\nclass = y[0]"] ;
554 -> 558 ;
559 [label="X[22] <= 0.5\ngini = 0.062\nsamples = 31\nvalue = [30, 1]\nclass = y[0]"] ;
503 -> 559 ;
560 [label="X[0] <= 1.249\ngini = 0.198\nsamples = 9\nvalue = [8, 1]\nclass = y[0]"] ;
559 -> 560 ;
561 [label="gini = 0.0\nsamples = 7\nvalue = [7, 0]\nclass = y[0]"] ;
560 -> 561 ;
562 [label="X[1] <= 3.524\ngini = 0.5\nsamples = 2\nvalue = [1, 1]\nclass = y[0]"] ;
560 -> 562 ;
563 [label="gini = 0.0\nsamples = 1\nvalue = [0, 1]\nclass = y[1]"] ;
562 -> 563 ;
564 [label="gini = 0.0\nsamples = 1\nvalue = [1, 0]\nclass = y[0]"] ;
562 -> 564 ;
565 [label="gini = 0.0\nsamples = 22\nvalue = [22, 0]\nclass = y[0]"] ;
559 -> 565 ;
566 [label="X[16] <= 0.5\ngini = 0.008\nsamples = 1781\nvalue = [1774, 7]\nclass = y[0]"] ;
502 -> 566 ;
567 [label="X[14] <= 0.5\ngini = 0.18\nsamples = 10\nvalue = [9, 1]\nclass = y[0]"] ;
566 -> 567 ;
568 [label="X[23] <= 0.5\ngini = 0.375\nsamples = 4\nvalue = [3, 1]\nclass = y[0]"] ;
567 -> 568 ;
569 [label="X[3] <= 1.315\ngini = 0.5\nsamples = 2\nvalue = [1, 1]\nclass = y[0]"] ;
568 -> 569 ;
570 [label="gini = 0.0\nsamples = 1\nvalue = [0, 1]\nclass = y[1]"] ;
569 -> 570 ;
571 [label="gini = 0.0\nsamples = 1\nvalue = [1, 0]\nclass = y[0]"] ;
569 -> 571 ;
572 [label="gini = 0.0\nsamples = 2\nvalue = [2, 0]\nclass = y[0]"] ;
568 -> 572 ;
573 [label="gini = 0.0\nsamples = 6\nvalue = [6, 0]\nclass = y[0]"] ;
567 -> 573 ;
574 [label="X[0] <= 0.447\ngini = 0.007\nsamples = 1771\nvalue = [1765, 6]\nclass = y[0]"] ;
566 -> 574 ;
575 [label="X[7] <= 0.124\ngini = 0.033\nsamples = 239\nvalue = [235, 4]\nclass = y[0]"] ;
574 -> 575 ;
576 [label="gini = 0.0\nsamples = 172\nvalue = [172, 0]\nclass = y[0]"] ;
575 -> 576 ;
577 [label="X[20] <= 0.5\ngini = 0.112\nsamples = 67\nvalue = [63, 4]\nclass = y[0]"] ;
575 -> 577 ;
578 [label="X[11] <= 0.5\ngini = 0.48\nsamples = 5\nvalue = [3, 2]\nclass = y[0]"] ;
577 -> 578 ;
579 [label="gini = 0.0\nsamples = 3\nvalue = [3, 0]\nclass = y[0]"] ;
578 -> 579 ;
580 [label="gini = 0.0\nsamples = 2\nvalue = [0, 2]\nclass = y[1]"] ;
578 -> 580 ;
581 [label="X[13] <= 0.5\ngini = 0.062\nsamples = 62\nvalue = [60, 2]\nclass = y[0]"] ;
577 -> 581 ;
582 [label="gini = 0.0\nsamples = 31\nvalue = [31, 0]\nclass = y[0]"] ;
581 -> 582 ;
583 [label="X[23] <= 0.5\ngini = 0.121\nsamples = 31\nvalue = [29, 2]\nclass = y[0]"] ;
581 -> 583 ;
584 [label="X[8] <= 0.87\ngini = 0.219\nsamples = 16\nvalue = [14, 2]\nclass = y[0]"] ;
583 -> 584 ;
585 [label="X[3] <= 0.899\ngini = 0.133\nsamples = 14\nvalue = [13, 1]\nclass = y[0]"] ;
584 -> 585 ;
586 [label="gini = 0.0\nsamples = 10\nvalue = [10, 0]\nclass = y[0]"] ;
585 -> 586 ;
587 [label="X[11] <= 0.5\ngini = 0.375\nsamples = 4\nvalue = [3, 1]\nclass = y[0]"] ;
585 -> 587 ;
588 [label="gini = 0.0\nsamples = 1\nvalue = [0, 1]\nclass = y[1]"] ;
587 -> 588 ;
589 [label="gini = 0.0\nsamples = 3\nvalue = [3, 0]\nclass = y[0]"] ;
587 -> 589 ;
590 [label="X[24] <= 0.5\ngini = 0.5\nsamples = 2\nvalue = [1, 1]\nclass = y[0]"] ;
584 -> 590 ;
591 [label="gini = 0.0\nsamples = 1\nvalue = [0, 1]\nclass = y[1]"] ;
590 -> 591 ;
592 [label="gini = 0.0\nsamples = 1\nvalue = [1, 0]\nclass = y[0]"] ;
590 -> 592 ;
593 [label="gini = 0.0\nsamples = 15\nvalue = [15, 0]\nclass = y[0]"] ;
583 -> 593 ;
594 [label="X[0] <= 0.715\ngini = 0.003\nsamples = 1532\nvalue = [1530, 2]\nclass = y[0]"] ;
574 -> 594 ;
595 [label="X[4] <= 0.558\ngini = 0.011\nsamples = 350\nvalue = [348, 2]\nclass = y[0]"] ;
594 -> 595 ;
596 [label="gini = 0.0\nsamples = 266\nvalue = [266, 0]\nclass = y[0]"] ;
595 -> 596 ;
597 [label="X[2] <= 1.897\ngini = 0.046\nsamples = 84\nvalue = [82, 2]\nclass = y[0]"] ;
595 -> 597 ;
598 [label="X[8] <= -0.769\ngini = 0.027\nsamples = 74\nvalue = [73, 1]\nclass = y[0]"] ;
597 -> 598 ;
599 [label="X[3] <= 0.899\ngini = 0.111\nsamples = 17\nvalue = [16, 1]\nclass = y[0]"] ;
598 -> 599 ;
600 [label="X[14] <= 0.5\ngini = 0.375\nsamples = 4\nvalue = [3, 1]\nclass = y[0]"] ;
599 -> 600 ;
601 [label="X[7] <= 0.124\ngini = 0.5\nsamples = 2\nvalue = [1, 1]\nclass = y[0]"] ;
600 -> 601 ;
602 [label="gini = 0.0\nsamples = 1\nvalue = [1, 0]\nclass = y[0]"] ;
601 -> 602 ;
603 [label="gini = 0.0\nsamples = 1\nvalue = [0, 1]\nclass = y[1]"] ;
601 -> 603 ;
604 [label="gini = 0.0\nsamples = 2\nvalue = [2, 0]\nclass = y[0]"] ;
600 -> 604 ;
605 [label="gini = 0.0\nsamples = 13\nvalue = [13, 0]\nclass = y[0]"] ;
599 -> 605 ;
606 [label="gini = 0.0\nsamples = 57\nvalue = [57, 0]\nclass = y[0]"] ;
598 -> 606 ;
607 [label="X[1] <= 0.364\ngini = 0.18\nsamples = 10\nvalue = [9, 1]\nclass = y[0]"] ;
597 -> 607 ;
608 [label="gini = 0.0\nsamples = 7\nvalue = [7, 0]\nclass = y[0]"] ;
607 -> 608 ;
609 [label="X[3] <= 0.483\ngini = 0.444\nsamples = 3\nvalue = [2, 1]\nclass = y[0]"] ;
607 -> 609 ;
610 [label="X[8] <= 0.87\ngini = 0.5\nsamples = 2\nvalue = [1, 1]\nclass = y[0]"] ;
609 -> 610 ;
611 [label="gini = 0.0\nsamples = 1\nvalue = [1, 0]\nclass = y[0]"] ;
610 -> 611 ;
612 [label="gini = 0.0\nsamples = 1\nvalue = [0, 1]\nclass = y[1]"] ;
610 -> 612 ;
613 [label="gini = 0.0\nsamples = 1\nvalue = [1, 0]\nclass = y[0]"] ;
609 -> 613 ;
614 [label="gini = 0.0\nsamples = 1182\nvalue = [1182, 0]\nclass = y[0]"] ;
594 -> 614 ;
615 [label="X[1] <= -0.426\ngini = 0.362\nsamples = 1073\nvalue = [818, 255]\nclass = y[0]"] ;
267 -> 615 ;
616 [label="X[6] <= 0.389\ngini = 0.05\nsamples = 156\nvalue = [4, 152]\nclass = y[1]"] ;
615 -> 616 ;
617 [label="X[26] <= 0.5\ngini = 0.027\nsamples = 147\nvalue = [2, 145]\nclass = y[1]"] ;
616 -> 617 ;
618 [label="gini = 0.0\nsamples = 122\nvalue = [0, 122]\nclass = y[1]"] ;
617 -> 618 ;
619 [label="X[8] <= 0.87\ngini = 0.147\nsamples = 25\nvalue = [2, 23]\nclass = y[1]"] ;
617 -> 619 ;
620 [label="gini = 0.0\nsamples = 17\nvalue = [0, 17]\nclass = y[1]"] ;
619 -> 620 ;
621 [label="X[19] <= 0.5\ngini = 0.375\nsamples = 8\nvalue = [2, 6]\nclass = y[1]"] ;
619 -> 621 ;
622 [label="X[14] <= 0.5\ngini = 0.245\nsamples = 7\nvalue = [1, 6]\nclass = y[1]"] ;
621 -> 622 ;
623 [label="X[11] <= 0.5\ngini = 0.444\nsamples = 3\nvalue = [1, 2]\nclass = y[1]"] ;
622 -> 623 ;
624 [label="gini = 0.0\nsamples = 1\nvalue = [0, 1]\nclass = y[1]"] ;
623 -> 624 ;
625 [label="X[0] <= -0.355\ngini = 0.5\nsamples = 2\nvalue = [1, 1]\nclass = y[0]"] ;
623 -> 625 ;
626 [label="gini = 0.0\nsamples = 1\nvalue = [1, 0]\nclass = y[0]"] ;
625 -> 626 ;
627 [label="gini = 0.0\nsamples = 1\nvalue = [0, 1]\nclass = y[1]"] ;
625 -> 627 ;
628 [label="gini = 0.0\nsamples = 4\nvalue = [0, 4]\nclass = y[1]"] ;
622 -> 628 ;
629 [label="gini = 0.0\nsamples = 1\nvalue = [1, 0]\nclass = y[0]"] ;
621 -> 629 ;
630 [label="X[8] <= 0.87\ngini = 0.346\nsamples = 9\nvalue = [2, 7]\nclass = y[1]"] ;
616 -> 630 ;
631 [label="gini = 0.0\nsamples = 5\nvalue = [0, 5]\nclass = y[1]"] ;
630 -> 631 ;
632 [label="X[0] <= -0.088\ngini = 0.5\nsamples = 4\nvalue = [2, 2]\nclass = y[0]"] ;
630 -> 632 ;
633 [label="gini = 0.0\nsamples = 2\nvalue = [0, 2]\nclass = y[1]"] ;
632 -> 633 ;
634 [label="gini = 0.0\nsamples = 2\nvalue = [2, 0]\nclass = y[0]"] ;
632 -> 634 ;
635 [label="X[16] <= 0.5\ngini = 0.199\nsamples = 917\nvalue = [814, 103]\nclass = y[0]"] ;
615 -> 635 ;
636 [label="X[0] <= 0.447\ngini = 0.029\nsamples = 543\nvalue = [535, 8]\nclass = y[0]"] ;
635 -> 636 ;
637 [label="X[18] <= 0.5\ngini = 0.159\nsamples = 69\nvalue = [63, 6]\nclass = y[0]"] ;
636 -> 637 ;
638 [label="X[13] <= 0.5\ngini = 0.089\nsamples = 64\nvalue = [61, 3]\nclass = y[0]"] ;
637 -> 638 ;
639 [label="gini = 0.0\nsamples = 43\nvalue = [43, 0]\nclass = y[0]"] ;
638 -> 639 ;
640 [label="X[2] <= 0.2\ngini = 0.245\nsamples = 21\nvalue = [18, 3]\nclass = y[0]"] ;
638 -> 640 ;
641 [label="gini = 0.0\nsamples = 1\nvalue = [0, 1]\nclass = y[1]"] ;
640 -> 641 ;
642 [label="X[24] <= 0.5\ngini = 0.18\nsamples = 20\nvalue = [18, 2]\nclass = y[0]"] ;
640 -> 642 ;
643 [label="gini = 0.0\nsamples = 11\nvalue = [11, 0]\nclass = y[0]"] ;
642 -> 643 ;
644 [label="X[8] <= 0.87\ngini = 0.346\nsamples = 9\nvalue = [7, 2]\nclass = y[0]"] ;
642 -> 644 ;
645 [label="X[8] <= 0.051\ngini = 0.444\nsamples = 6\nvalue = [4, 2]\nclass = y[0]"] ;
644 -> 645 ;
646 [label="X[22] <= 0.5\ngini = 0.32\nsamples = 5\nvalue = [4, 1]\nclass = y[0]"] ;
645 -> 646 ;
647 [label="X[3] <= 0.067\ngini = 0.5\nsamples = 2\nvalue = [1, 1]\nclass = y[0]"] ;
646 -> 647 ;
648 [label="gini = 0.0\nsamples = 1\nvalue = [1, 0]\nclass = y[0]"] ;
647 -> 648 ;
649 [label="gini = 0.0\nsamples = 1\nvalue = [0, 1]\nclass = y[1]"] ;
647 -> 649 ;
650 [label="gini = 0.0\nsamples = 3\nvalue = [3, 0]\nclass = y[0]"] ;
646 -> 650 ;
651 [label="gini = 0.0\nsamples = 1\nvalue = [0, 1]\nclass = y[1]"] ;
645 -> 651 ;
652 [label="gini = 0.0\nsamples = 3\nvalue = [3, 0]\nclass = y[0]"] ;
644 -> 652 ;
653 [label="X[8] <= -0.769\ngini = 0.48\nsamples = 5\nvalue = [2, 3]\nclass = y[1]"] ;
637 -> 653 ;
654 [label="gini = 0.0\nsamples = 3\nvalue = [0, 3]\nclass = y[1]"] ;
653 -> 654 ;
655 [label="gini = 0.0\nsamples = 2\nvalue = [2, 0]\nclass = y[0]"] ;
653 -> 655 ;
656 [label="X[6] <= 0.389\ngini = 0.008\nsamples = 474\nvalue = [472, 2]\nclass = y[0]"] ;
636 -> 656 ;
657 [label="gini = 0.0\nsamples = 404\nvalue = [404, 0]\nclass = y[0]"] ;
656 -> 657 ;
658 [label="X[0] <= 0.715\ngini = 0.056\nsamples = 70\nvalue = [68, 2]\nclass = y[0]"] ;
656 -> 658 ;
659 [label="X[1] <= 1.154\ngini = 0.26\nsamples = 13\nvalue = [11, 2]\nclass = y[0]"] ;
658 -> 659 ;
660 [label="X[3] <= 1.731\ngini = 0.153\nsamples = 12\nvalue = [11, 1]\nclass = y[0]"] ;
659 -> 660 ;
661 [label="gini = 0.0\nsamples = 11\nvalue = [11, 0]\nclass = y[0]"] ;
660 -> 661 ;
662 [label="gini = 0.0\nsamples = 1\nvalue = [0, 1]\nclass = y[1]"] ;
660 -> 662 ;
663 [label="gini = 0.0\nsamples = 1\nvalue = [0, 1]\nclass = y[1]"] ;
659 -> 663 ;
664 [label="gini = 0.0\nsamples = 57\nvalue = [57, 0]\nclass = y[0]"] ;
658 -> 664 ;
665 [label="X[1] <= 0.364\ngini = 0.379\nsamples = 374\nvalue = [279, 95]\nclass = y[0]"] ;
635 -> 665 ;
666 [label="X[7] <= 0.124\ngini = 0.456\nsamples = 71\nvalue = [25, 46]\nclass = y[1]"] ;
665 -> 666 ;
667 [label="X[0] <= -0.088\ngini = 0.355\nsamples = 26\nvalue = [20, 6]\nclass = y[0]"] ;
666 -> 667 ;
668 [label="X[11] <= 0.5\ngini = 0.444\nsamples = 3\nvalue = [1, 2]\nclass = y[1]"] ;
667 -> 668 ;
669 [label="gini = 0.0\nsamples = 2\nvalue = [0, 2]\nclass = y[1]"] ;
668 -> 669 ;
670 [label="gini = 0.0\nsamples = 1\nvalue = [1, 0]\nclass = y[0]"] ;
668 -> 670 ;
671 [label="X[13] <= 0.5\ngini = 0.287\nsamples = 23\nvalue = [19, 4]\nclass = y[0]"] ;
667 -> 671 ;
672 [label="gini = 0.0\nsamples = 10\nvalue = [10, 0]\nclass = y[0]"] ;
671 -> 672 ;
673 [label="X[10] <= 0.5\ngini = 0.426\nsamples = 13\nvalue = [9, 4]\nclass = y[0]"] ;
671 -> 673 ;
674 [label="X[3] <= 0.899\ngini = 0.48\nsamples = 5\nvalue = [2, 3]\nclass = y[1]"] ;
673 -> 674 ;
675 [label="X[24] <= 0.5\ngini = 0.444\nsamples = 3\nvalue = [2, 1]\nclass = y[0]"] ;
674 -> 675 ;
676 [label="gini = 0.0\nsamples = 1\nvalue = [0, 1]\nclass = y[1]"] ;
675 -> 676 ;
677 [label="gini = 0.0\nsamples = 2\nvalue = [2, 0]\nclass = y[0]"] ;
675 -> 677 ;
678 [label="gini = 0.0\nsamples = 2\nvalue = [0, 2]\nclass = y[1]"] ;
674 -> 678 ;
679 [label="X[8] <= 0.87\ngini = 0.219\nsamples = 8\nvalue = [7, 1]\nclass = y[0]"] ;
673 -> 679 ;
680 [label="gini = 0.0\nsamples = 7\nvalue = [7, 0]\nclass = y[0]"] ;
679 -> 680 ;
681 [label="gini = 0.0\nsamples = 1\nvalue = [0, 1]\nclass = y[1]"] ;
679 -> 681 ;
682 [label="X[5] <= -0.314\ngini = 0.198\nsamples = 45\nvalue = [5, 40]\nclass = y[1]"] ;
666 -> 682 ;
683 [label="gini = 0.0\nsamples = 2\nvalue = [2, 0]\nclass = y[0]"] ;
682 -> 683 ;
684 [label="X[0] <= 0.18\ngini = 0.13\nsamples = 43\nvalue = [3, 40]\nclass = y[1]"] ;
682 -> 684 ;
685 [label="gini = 0.0\nsamples = 20\nvalue = [0, 20]\nclass = y[1]"] ;
684 -> 685 ;
686 [label="X[3] <= 0.067\ngini = 0.227\nsamples = 23\nvalue = [3, 20]\nclass = y[1]"] ;
684 -> 686 ;
687 [label="X[26] <= 0.5\ngini = 0.48\nsamples = 5\nvalue = [2, 3]\nclass = y[1]"] ;
686 -> 687 ;
688 [label="X[8] <= 0.87\ngini = 0.375\nsamples = 4\nvalue = [1, 3]\nclass = y[1]"] ;
687 -> 688 ;
689 [label="gini = 0.0\nsamples = 3\nvalue = [0, 3]\nclass = y[1]"] ;
688 -> 689 ;
690 [label="gini = 0.0\nsamples = 1\nvalue = [1, 0]\nclass = y[0]"] ;
688 -> 690 ;
691 [label="gini = 0.0\nsamples = 1\nvalue = [1, 0]\nclass = y[0]"] ;
687 -> 691 ;
692 [label="X[5] <= -0.052\ngini = 0.105\nsamples = 18\nvalue = [1, 17]\nclass = y[1]"] ;
686 -> 692 ;
693 [label="X[3] <= 0.899\ngini = 0.5\nsamples = 2\nvalue = [1, 1]\nclass = y[0]"] ;
692 -> 693 ;
694 [label="gini = 0.0\nsamples = 1\nvalue = [1, 0]\nclass = y[0]"] ;
693 -> 694 ;
695 [label="gini = 0.0\nsamples = 1\nvalue = [0, 1]\nclass = y[1]"] ;
693 -> 695 ;
696 [label="gini = 0.0\nsamples = 16\nvalue = [0, 16]\nclass = y[1]"] ;
692 -> 696 ;
697 [label="X[0] <= 0.982\ngini = 0.271\nsamples = 303\nvalue = [254, 49]\nclass = y[0]"] ;
665 -> 697 ;
698 [label="X[4] <= 0.558\ngini = 0.366\nsamples = 145\nvalue = [110, 35]\nclass = y[0]"] ;
697 -> 698 ;
699 [label="X[1] <= 1.154\ngini = 0.284\nsamples = 105\nvalue = [87, 18]\nclass = y[0]"] ;
698 -> 699 ;
700 [label="X[0] <= 0.18\ngini = 0.168\nsamples = 65\nvalue = [59, 6]\nclass = y[0]"] ;
699 -> 700 ;
701 [label="X[13] <= 0.5\ngini = 0.5\nsamples = 4\nvalue = [2, 2]\nclass = y[0]"] ;
700 -> 701 ;
702 [label="gini = 0.0\nsamples = 2\nvalue = [2, 0]\nclass = y[0]"] ;
701 -> 702 ;
703 [label="gini = 0.0\nsamples = 2\nvalue = [0, 2]\nclass = y[1]"] ;
701 -> 703 ;
704 [label="X[6] <= 0.389\ngini = 0.123\nsamples = 61\nvalue = [57, 4]\nclass = y[0]"] ;
700 -> 704 ;
705 [label="X[2] <= 0.2\ngini = 0.097\nsamples = 59\nvalue = [56, 3]\nclass = y[0]"] ;
704 -> 705 ;
706 [label="X[11] <= 0.5\ngini = 0.198\nsamples = 27\nvalue = [24, 3]\nclass = y[0]"] ;
705 -> 706 ;
707 [label="X[5] <= -0.052\ngini = 0.337\nsamples = 14\nvalue = [11, 3]\nclass = y[0]"] ;
706 -> 707 ;
708 [label="gini = 0.0\nsamples = 6\nvalue = [6, 0]\nclass = y[0]"] ;
707 -> 708 ;
709 [label="X[24] <= 0.5\ngini = 0.469\nsamples = 8\nvalue = [5, 3]\nclass = y[0]"] ;
707 -> 709 ;
710 [label="gini = 0.0\nsamples = 3\nvalue = [3, 0]\nclass = y[0]"] ;
709 -> 710 ;
711 [label="X[0] <= 0.715\ngini = 0.48\nsamples = 5\nvalue = [2, 3]\nclass = y[1]"] ;
709 -> 711 ;
712 [label="gini = 0.0\nsamples = 2\nvalue = [0, 2]\nclass = y[1]"] ;
711 -> 712 ;
713 [label="X[3] <= 1.731\ngini = 0.444\nsamples = 3\nvalue = [2, 1]\nclass = y[0]"] ;
711 -> 713 ;
714 [label="X[7] <= 1.747\ngini = 0.5\nsamples = 2\nvalue = [1, 1]\nclass = y[0]"] ;
713 -> 714 ;
715 [label="gini = 0.0\nsamples = 1\nvalue = [0, 1]\nclass = y[1]"] ;
714 -> 715 ;
716 [label="gini = 0.0\nsamples = 1\nvalue = [1, 0]\nclass = y[0]"] ;
714 -> 716 ;
717 [label="gini = 0.0\nsamples = 1\nvalue = [1, 0]\nclass = y[0]"] ;
713 -> 717 ;
718 [label="gini = 0.0\nsamples = 13\nvalue = [13, 0]\nclass = y[0]"] ;
706 -> 718 ;
719 [label="gini = 0.0\nsamples = 32\nvalue = [32, 0]\nclass = y[0]"] ;
705 -> 719 ;
720 [label="X[19] <= 0.5\ngini = 0.5\nsamples = 2\nvalue = [1, 1]\nclass = y[0]"] ;
704 -> 720 ;
721 [label="gini = 0.0\nsamples = 1\nvalue = [0, 1]\nclass = y[1]"] ;
720 -> 721 ;
722 [label="gini = 0.0\nsamples = 1\nvalue = [1, 0]\nclass = y[0]"] ;
720 -> 722 ;
723 [label="X[10] <= 0.5\ngini = 0.42\nsamples = 40\nvalue = [28, 12]\nclass = y[0]"] ;
699 -> 723 ;
724 [label="X[8] <= 1.69\ngini = 0.236\nsamples = 22\nvalue = [19, 3]\nclass = y[0]"] ;
723 -> 724 ;
725 [label="X[8] <= 0.87\ngini = 0.172\nsamples = 21\nvalue = [19, 2]\nclass = y[0]"] ;
724 -> 725 ;
726 [label="X[3] <= 1.731\ngini = 0.105\nsamples = 18\nvalue = [17, 1]\nclass = y[0]"] ;
725 -> 726 ;
727 [label="gini = 0.0\nsamples = 14\nvalue = [14, 0]\nclass = y[0]"] ;
726 -> 727 ;
728 [label="X[13] <= 0.5\ngini = 0.375\nsamples = 4\nvalue = [3, 1]\nclass = y[0]"] ;
726 -> 728 ;
729 [label="gini = 0.0\nsamples = 1\nvalue = [0, 1]\nclass = y[1]"] ;
728 -> 729 ;
730 [label="gini = 0.0\nsamples = 3\nvalue = [3, 0]\nclass = y[0]"] ;
728 -> 730 ;
731 [label="X[13] <= 0.5\ngini = 0.444\nsamples = 3\nvalue = [2, 1]\nclass = y[0]"] ;
725 -> 731 ;
732 [label="gini = 0.0\nsamples = 2\nvalue = [2, 0]\nclass = y[0]"] ;
731 -> 732 ;
733 [label="gini = 0.0\nsamples = 1\nvalue = [0, 1]\nclass = y[1]"] ;
731 -> 733 ;
734 [label="gini = 0.0\nsamples = 1\nvalue = [0, 1]\nclass = y[1]"] ;
724 -> 734 ;
735 [label="X[7] <= 0.124\ngini = 0.5\nsamples = 18\nvalue = [9, 9]\nclass = y[0]"] ;
723 -> 735 ;
736 [label="X[1] <= 3.919\ngini = 0.32\nsamples = 5\nvalue = [4, 1]\nclass = y[0]"] ;
735 -> 736 ;
737 [label="gini = 0.0\nsamples = 4\nvalue = [4, 0]\nclass = y[0]"] ;
736 -> 737 ;
738 [label="gini = 0.0\nsamples = 1\nvalue = [0, 1]\nclass = y[1]"] ;
736 -> 738 ;
739 [label="X[2] <= 1.897\ngini = 0.473\nsamples = 13\nvalue = [5, 8]\nclass = y[1]"] ;
735 -> 739 ;
740 [label="X[5] <= -0.052\ngini = 0.397\nsamples = 11\nvalue = [3, 8]\nclass = y[1]"] ;
739 -> 740 ;
741 [label="X[2] <= 0.2\ngini = 0.444\nsamples = 3\nvalue = [2, 1]\nclass = y[0]"] ;
740 -> 741 ;
742 [label="gini = 0.0\nsamples = 1\nvalue = [0, 1]\nclass = y[1]"] ;
741 -> 742 ;
743 [label="gini = 0.0\nsamples = 2\nvalue = [2, 0]\nclass = y[0]"] ;
741 -> 743 ;
744 [label="X[6] <= 0.389\ngini = 0.219\nsamples = 8\nvalue = [1, 7]\nclass = y[1]"] ;
740 -> 744 ;
745 [label="gini = 0.0\nsamples = 7\nvalue = [0, 7]\nclass = y[1]"] ;
744 -> 745 ;
746 [label="gini = 0.0\nsamples = 1\nvalue = [1, 0]\nclass = y[0]"] ;
744 -> 746 ;
747 [label="gini = 0.0\nsamples = 2\nvalue = [2, 0]\nclass = y[0]"] ;
739 -> 747 ;
748 [label="X[2] <= 1.897\ngini = 0.489\nsamples = 40\nvalue = [23, 17]\nclass = y[0]"] ;
698 -> 748 ;
749 [label="X[7] <= 0.124\ngini = 0.444\nsamples = 33\nvalue = [22, 11]\nclass = y[0]"] ;
748 -> 749 ;
750 [label="X[0] <= 0.314\ngini = 0.219\nsamples = 16\nvalue = [14, 2]\nclass = y[0]"] ;
749 -> 750 ;
751 [label="gini = 0.0\nsamples = 1\nvalue = [0, 1]\nclass = y[1]"] ;
750 -> 751 ;
752 [label="X[3] <= 1.731\ngini = 0.124\nsamples = 15\nvalue = [14, 1]\nclass = y[0]"] ;
750 -> 752 ;
753 [label="gini = 0.0\nsamples = 12\nvalue = [12, 0]\nclass = y[0]"] ;
752 -> 753 ;
754 [label="X[18] <= 0.5\ngini = 0.444\nsamples = 3\nvalue = [2, 1]\nclass = y[0]"] ;
752 -> 754 ;
755 [label="gini = 0.0\nsamples = 1\nvalue = [0, 1]\nclass = y[1]"] ;
754 -> 755 ;
756 [label="gini = 0.0\nsamples = 2\nvalue = [2, 0]\nclass = y[0]"] ;
754 -> 756 ;
757 [label="X[3] <= 0.067\ngini = 0.498\nsamples = 17\nvalue = [8, 9]\nclass = y[1]"] ;
749 -> 757 ;
758 [label="gini = 0.0\nsamples = 2\nvalue = [2, 0]\nclass = y[0]"] ;
757 -> 758 ;
759 [label="X[13] <= 0.5\ngini = 0.48\nsamples = 15\nvalue = [6, 9]\nclass = y[1]"] ;
757 -> 759 ;
760 [label="gini = 0.0\nsamples = 2\nvalue = [2, 0]\nclass = y[0]"] ;
759 -> 760 ;
761 [label="X[8] <= -0.769\ngini = 0.426\nsamples = 13\nvalue = [4, 9]\nclass = y[1]"] ;
759 -> 761 ;
762 [label="X[0] <= 0.715\ngini = 0.5\nsamples = 8\nvalue = [4, 4]\nclass = y[0]"] ;
761 -> 762 ;
763 [label="X[7] <= 1.747\ngini = 0.32\nsamples = 5\nvalue = [4, 1]\nclass = y[0]"] ;
762 -> 763 ;
764 [label="gini = 0.0\nsamples = 4\nvalue = [4, 0]\nclass = y[0]"] ;
763 -> 764 ;
765 [label="gini = 0.0\nsamples = 1\nvalue = [0, 1]\nclass = y[1]"] ;
763 -> 765 ;
766 [label="gini = 0.0\nsamples = 3\nvalue = [0, 3]\nclass = y[1]"] ;
762 -> 766 ;
767 [label="gini = 0.0\nsamples = 5\nvalue = [0, 5]\nclass = y[1]"] ;
761 -> 767 ;
768 [label="X[5] <= -0.052\ngini = 0.245\nsamples = 7\nvalue = [1, 6]\nclass = y[1]"] ;
748 -> 768 ;
769 [label="X[8] <= 0.051\ngini = 0.444\nsamples = 3\nvalue = [1, 2]\nclass = y[1]"] ;
768 -> 769 ;
770 [label="gini = 0.0\nsamples = 2\nvalue = [0, 2]\nclass = y[1]"] ;
769 -> 770 ;
771 [label="gini = 0.0\nsamples = 1\nvalue = [1, 0]\nclass = y[0]"] ;
769 -> 771 ;
772 [label="gini = 0.0\nsamples = 4\nvalue = [0, 4]\nclass = y[1]"] ;
768 -> 772 ;
773 [label="X[1] <= 6.685\ngini = 0.162\nsamples = 158\nvalue = [144, 14]\nclass = y[0]"] ;
697 -> 773 ;
774 [label="X[4] <= 0.558\ngini = 0.152\nsamples = 157\nvalue = [144, 13]\nclass = y[0]"] ;
773 -> 774 ;
775 [label="X[1] <= 1.154\ngini = 0.106\nsamples = 107\nvalue = [101, 6]\nclass = y[0]"] ;
774 -> 775 ;
776 [label="X[10] <= 0.5\ngini = 0.255\nsamples = 20\nvalue = [17, 3]\nclass = y[0]"] ;
775 -> 776 ;
777 [label="gini = 0.0\nsamples = 12\nvalue = [12, 0]\nclass = y[0]"] ;
776 -> 777 ;
778 [label="X[8] <= 0.051\ngini = 0.469\nsamples = 8\nvalue = [5, 3]\nclass = y[0]"] ;
776 -> 778 ;
779 [label="X[20] <= 0.5\ngini = 0.408\nsamples = 7\nvalue = [5, 2]\nclass = y[0]"] ;
778 -> 779 ;
780 [label="gini = 0.0\nsamples = 4\nvalue = [4, 0]\nclass = y[0]"] ;
779 -> 780 ;
781 [label="X[22] <= 0.5\ngini = 0.444\nsamples = 3\nvalue = [1, 2]\nclass = y[1]"] ;
779 -> 781 ;
782 [label="gini = 0.0\nsamples = 1\nvalue = [1, 0]\nclass = y[0]"] ;
781 -> 782 ;
783 [label="gini = 0.0\nsamples = 2\nvalue = [0, 2]\nclass = y[1]"] ;
781 -> 783 ;
784 [label="gini = 0.0\nsamples = 1\nvalue = [0, 1]\nclass = y[1]"] ;
778 -> 784 ;
785 [label="X[8] <= 0.87\ngini = 0.067\nsamples = 87\nvalue = [84, 3]\nclass = y[0]"] ;
775 -> 785 ;
786 [label="X[1] <= 2.734\ngini = 0.027\nsamples = 73\nvalue = [72, 1]\nclass = y[0]"] ;
785 -> 786 ;
787 [label="gini = 0.0\nsamples = 53\nvalue = [53, 0]\nclass = y[0]"] ;
786 -> 787 ;
788 [label="X[22] <= 0.5\ngini = 0.095\nsamples = 20\nvalue = [19, 1]\nclass = y[0]"] ;
786 -> 788 ;
789 [label="X[9] <= 0.587\ngini = 0.32\nsamples = 5\nvalue = [4, 1]\nclass = y[0]"] ;
788 -> 789 ;
790 [label="gini = 0.0\nsamples = 1\nvalue = [0, 1]\nclass = y[1]"] ;
789 -> 790 ;
791 [label="gini = 0.0\nsamples = 4\nvalue = [4, 0]\nclass = y[0]"] ;
789 -> 791 ;
792 [label="gini = 0.0\nsamples = 15\nvalue = [15, 0]\nclass = y[0]"] ;
788 -> 792 ;
793 [label="X[22] <= 0.5\ngini = 0.245\nsamples = 14\nvalue = [12, 2]\nclass = y[0]"] ;
785 -> 793 ;
794 [label="X[2] <= 0.2\ngini = 0.153\nsamples = 12\nvalue = [11, 1]\nclass = y[0]"] ;
793 -> 794 ;
795 [label="X[5] <= -0.052\ngini = 0.444\nsamples = 3\nvalue = [2, 1]\nclass = y[0]"] ;
794 -> 795 ;
796 [label="gini = 0.0\nsamples = 1\nvalue = [0, 1]\nclass = y[1]"] ;
795 -> 796 ;
797 [label="gini = 0.0\nsamples = 2\nvalue = [2, 0]\nclass = y[0]"] ;
795 -> 797 ;
798 [label="gini = 0.0\nsamples = 9\nvalue = [9, 0]\nclass = y[0]"] ;
794 -> 798 ;
799 [label="X[7] <= 1.747\ngini = 0.5\nsamples = 2\nvalue = [1, 1]\nclass = y[0]"] ;
793 -> 799 ;
800 [label="gini = 0.0\nsamples = 1\nvalue = [0, 1]\nclass = y[1]"] ;
799 -> 800 ;
801 [label="gini = 0.0\nsamples = 1\nvalue = [1, 0]\nclass = y[0]"] ;
799 -> 801 ;
802 [label="X[1] <= 4.71\ngini = 0.241\nsamples = 50\nvalue = [43, 7]\nclass = y[0]"] ;
774 -> 802 ;
803 [label="X[7] <= 0.124\ngini = 0.215\nsamples = 49\nvalue = [43, 6]\nclass = y[0]"] ;
802 -> 803 ;
804 [label="X[19] <= 0.5\ngini = 0.08\nsamples = 24\nvalue = [23, 1]\nclass = y[0]"] ;
803 -> 804 ;
805 [label="X[3] <= 0.483\ngini = 0.5\nsamples = 2\nvalue = [1, 1]\nclass = y[0]"] ;
804 -> 805 ;
806 [label="gini = 0.0\nsamples = 1\nvalue = [1, 0]\nclass = y[0]"] ;
805 -> 806 ;
807 [label="gini = 0.0\nsamples = 1\nvalue = [0, 1]\nclass = y[1]"] ;
805 -> 807 ;
808 [label="gini = 0.0\nsamples = 22\nvalue = [22, 0]\nclass = y[0]"] ;
804 -> 808 ;
809 [label="X[11] <= 0.5\ngini = 0.32\nsamples = 25\nvalue = [20, 5]\nclass = y[0]"] ;
803 -> 809 ;
810 [label="X[1] <= 1.944\ngini = 0.124\nsamples = 15\nvalue = [14, 1]\nclass = y[0]"] ;
809 -> 810 ;
811 [label="X[0] <= 1.249\ngini = 0.245\nsamples = 7\nvalue = [6, 1]\nclass = y[0]"] ;
810 -> 811 ;
812 [label="gini = 0.0\nsamples = 4\nvalue = [4, 0]\nclass = y[0]"] ;
811 -> 812 ;
813 [label="X[3] <= 0.899\ngini = 0.444\nsamples = 3\nvalue = [2, 1]\nclass = y[0]"] ;
811 -> 813 ;
814 [label="gini = 0.0\nsamples = 2\nvalue = [2, 0]\nclass = y[0]"] ;
813 -> 814 ;
815 [label="gini = 0.0\nsamples = 1\nvalue = [0, 1]\nclass = y[1]"] ;
813 -> 815 ;
816 [label="gini = 0.0\nsamples = 8\nvalue = [8, 0]\nclass = y[0]"] ;
810 -> 816 ;
817 [label="X[23] <= 0.5\ngini = 0.48\nsamples = 10\nvalue = [6, 4]\nclass = y[0]"] ;
809 -> 817 ;
818 [label="X[8] <= -0.769\ngini = 0.48\nsamples = 5\nvalue = [2, 3]\nclass = y[1]"] ;
817 -> 818 ;
819 [label="X[0] <= 1.249\ngini = 0.444\nsamples = 3\nvalue = [2, 1]\nclass = y[0]"] ;
818 -> 819 ;
820 [label="gini = 0.0\nsamples = 1\nvalue = [1, 0]\nclass = y[0]"] ;
819 -> 820 ;
821 [label="X[3] <= 2.562\ngini = 0.5\nsamples = 2\nvalue = [1, 1]\nclass = y[0]"] ;
819 -> 821 ;
822 [label="gini = 0.0\nsamples = 1\nvalue = [0, 1]\nclass = y[1]"] ;
821 -> 822 ;
823 [label="gini = 0.0\nsamples = 1\nvalue = [1, 0]\nclass = y[0]"] ;
821 -> 823 ;
824 [label="gini = 0.0\nsamples = 2\nvalue = [0, 2]\nclass = y[1]"] ;
818 -> 824 ;
825 [label="X[5] <= -0.052\ngini = 0.32\nsamples = 5\nvalue = [4, 1]\nclass = y[0]"] ;
817 -> 825 ;
826 [label="gini = 0.0\nsamples = 1\nvalue = [0, 1]\nclass = y[1]"] ;
825 -> 826 ;
827 [label="gini = 0.0\nsamples = 4\nvalue = [4, 0]\nclass = y[0]"] ;
825 -> 827 ;
828 [label="gini = 0.0\nsamples = 1\nvalue = [0, 1]\nclass = y[1]"] ;
802 -> 828 ;
829 [label="gini = 0.0\nsamples = 1\nvalue = [0, 1]\nclass = y[1]"] ;
773 -> 829 ;
830 [label="X[0] <= 0.447\ngini = 0.153\nsamples = 19015\nvalue = [1589, 17426]\nclass = y[1]"] ;
0 -> 830 [labeldistance=2.5, labelangle=-45, headlabel="False"] ;
831 [label="X[0] <= 0.18\ngini = 0.039\nsamples = 16925\nvalue = [335, 16590]\nclass = y[1]"] ;
830 -> 831 ;
832 [label="X[1] <= -0.426\ngini = 0.01\nsamples = 15940\nvalue = [80, 15860]\nclass = y[1]"] ;
831 -> 832 ;
833 [label="X[5] <= 0.474\ngini = 0.001\nsamples = 15006\nvalue = [8, 14998]\nclass = y[1]"] ;
832 -> 833 ;
834 [label="X[6] <= 1.182\ngini = 0.008\nsamples = 1478\nvalue = [6, 1472]\nclass = y[1]"] ;
833 -> 834 ;
835 [label="X[2] <= 0.2\ngini = 0.007\nsamples = 1473\nvalue = [5, 1468]\nclass = y[1]"] ;
834 -> 835 ;
836 [label="X[0] <= -0.355\ngini = 0.003\nsamples = 1341\nvalue = [2, 1339]\nclass = y[1]"] ;
835 -> 836 ;
837 [label="gini = 0.0\nsamples = 1144\nvalue = [0, 1144]\nclass = y[1]"] ;
836 -> 837 ;
838 [label="X[8] <= 1.69\ngini = 0.02\nsamples = 197\nvalue = [2, 195]\nclass = y[1]"] ;
836 -> 838 ;
839 [label="X[18] <= 0.5\ngini = 0.011\nsamples = 181\nvalue = [1, 180]\nclass = y[1]"] ;
838 -> 839 ;
840 [label="gini = 0.0\nsamples = 140\nvalue = [0, 140]\nclass = y[1]"] ;
839 -> 840 ;
841 [label="X[8] <= 0.051\ngini = 0.048\nsamples = 41\nvalue = [1, 40]\nclass = y[1]"] ;
839 -> 841 ;
842 [label="X[3] <= 0.067\ngini = 0.111\nsamples = 17\nvalue = [1, 16]\nclass = y[1]"] ;
841 -> 842 ;
843 [label="X[4] <= 0.558\ngini = 0.5\nsamples = 2\nvalue = [1, 1]\nclass = y[0]"] ;
842 -> 843 ;
844 [label="gini = 0.0\nsamples = 1\nvalue = [1, 0]\nclass = y[0]"] ;
843 -> 844 ;
845 [label="gini = 0.0\nsamples = 1\nvalue = [0, 1]\nclass = y[1]"] ;
843 -> 845 ;
846 [label="gini = 0.0\nsamples = 15\nvalue = [0, 15]\nclass = y[1]"] ;
842 -> 846 ;
847 [label="gini = 0.0\nsamples = 24\nvalue = [0, 24]\nclass = y[1]"] ;
841 -> 847 ;
848 [label="X[26] <= 0.5\ngini = 0.117\nsamples = 16\nvalue = [1, 15]\nclass = y[1]"] ;
838 -> 848 ;
849 [label="gini = 0.0\nsamples = 12\nvalue = [0, 12]\nclass = y[1]"] ;
848 -> 849 ;
850 [label="X[6] <= 0.389\ngini = 0.375\nsamples = 4\nvalue = [1, 3]\nclass = y[1]"] ;
848 -> 850 ;
851 [label="gini = 0.0\nsamples = 3\nvalue = [0, 3]\nclass = y[1]"] ;
850 -> 851 ;
852 [label="gini = 0.0\nsamples = 1\nvalue = [1, 0]\nclass = y[0]"] ;
850 -> 852 ;
853 [label="X[15] <= 0.5\ngini = 0.044\nsamples = 132\nvalue = [3, 129]\nclass = y[1]"] ;
835 -> 853 ;
854 [label="X[19] <= 0.5\ngini = 0.03\nsamples = 130\nvalue = [2, 128]\nclass = y[1]"] ;
853 -> 854 ;
855 [label="X[0] <= -0.89\ngini = 0.298\nsamples = 11\nvalue = [2, 9]\nclass = y[1]"] ;
854 -> 855 ;
856 [label="gini = 0.0\nsamples = 1\nvalue = [1, 0]\nclass = y[0]"] ;
855 -> 856 ;
857 [label="X[0] <= -0.088\ngini = 0.18\nsamples = 10\nvalue = [1, 9]\nclass = y[1]"] ;
855 -> 857 ;
858 [label="gini = 0.0\nsamples = 7\nvalue = [0, 7]\nclass = y[1]"] ;
857 -> 858 ;
859 [label="X[6] <= 0.389\ngini = 0.444\nsamples = 3\nvalue = [1, 2]\nclass = y[1]"] ;
857 -> 859 ;
860 [label="gini = 0.0\nsamples = 1\nvalue = [1, 0]\nclass = y[0]"] ;
859 -> 860 ;
861 [label="gini = 0.0\nsamples = 2\nvalue = [0, 2]\nclass = y[1]"] ;
859 -> 861 ;
862 [label="gini = 0.0\nsamples = 119\nvalue = [0, 119]\nclass = y[1]"] ;
854 -> 862 ;
863 [label="X[23] <= 0.5\ngini = 0.5\nsamples = 2\nvalue = [1, 1]\nclass = y[0]"] ;
853 -> 863 ;
864 [label="gini = 0.0\nsamples = 1\nvalue = [0, 1]\nclass = y[1]"] ;
863 -> 864 ;
865 [label="gini = 0.0\nsamples = 1\nvalue = [1, 0]\nclass = y[0]"] ;
863 -> 865 ;
866 [label="X[3] <= 0.899\ngini = 0.32\nsamples = 5\nvalue = [1, 4]\nclass = y[1]"] ;
834 -> 866 ;
867 [label="gini = 0.0\nsamples = 4\nvalue = [0, 4]\nclass = y[1]"] ;
866 -> 867 ;
868 [label="gini = 0.0\nsamples = 1\nvalue = [1, 0]\nclass = y[0]"] ;
866 -> 868 ;
869 [label="X[21] <= 0.5\ngini = 0.0\nsamples = 13528\nvalue = [2, 13526]\nclass = y[1]"] ;
833 -> 869 ;
870 [label="X[0] <= -0.088\ngini = 0.0\nsamples = 13421\nvalue = [1, 13420]\nclass = y[1]"] ;
869 -> 870 ;
871 [label="gini = 0.0\nsamples = 12917\nvalue = [0, 12917]\nclass = y[1]"] ;
870 -> 871 ;
872 [label="X[5] <= 0.736\ngini = 0.004\nsamples = 504\nvalue = [1, 503]\nclass = y[1]"] ;
870 -> 872 ;
873 [label="X[6] <= 1.182\ngini = 0.017\nsamples = 117\nvalue = [1, 116]\nclass = y[1]"] ;
872 -> 873 ;
874 [label="gini = 0.0\nsamples = 112\nvalue = [0, 112]\nclass = y[1]"] ;
873 -> 874 ;
875 [label="X[8] <= 0.051\ngini = 0.32\nsamples = 5\nvalue = [1, 4]\nclass = y[1]"] ;
873 -> 875 ;
876 [label="gini = 0.0\nsamples = 1\nvalue = [1, 0]\nclass = y[0]"] ;
875 -> 876 ;
877 [label="gini = 0.0\nsamples = 4\nvalue = [0, 4]\nclass = y[1]"] ;
875 -> 877 ;
878 [label="gini = 0.0\nsamples = 387\nvalue = [0, 387]\nclass = y[1]"] ;
872 -> 878 ;
879 [label="X[0] <= -1.157\ngini = 0.019\nsamples = 107\nvalue = [1, 106]\nclass = y[1]"] ;
869 -> 879 ;
880 [label="gini = 0.0\nsamples = 93\nvalue = [0, 93]\nclass = y[1]"] ;
879 -> 880 ;
881 [label="X[5] <= 0.736\ngini = 0.133\nsamples = 14\nvalue = [1, 13]\nclass = y[1]"] ;
879 -> 881 ;
882 [label="X[6] <= 0.389\ngini = 0.375\nsamples = 4\nvalue = [1, 3]\nclass = y[1]"] ;
881 -> 882 ;
883 [label="gini = 0.0\nsamples = 3\nvalue = [0, 3]\nclass = y[1]"] ;
882 -> 883 ;
884 [label="gini = 0.0\nsamples = 1\nvalue = [1, 0]\nclass = y[0]"] ;
882 -> 884 ;
885 [label="gini = 0.0\nsamples = 10\nvalue = [0, 10]\nclass = y[1]"] ;
881 -> 885 ;
886 [label="X[6] <= -0.404\ngini = 0.142\nsamples = 934\nvalue = [72, 862]\nclass = y[1]"] ;
832 -> 886 ;
887 [label="X[5] <= 0.736\ngini = 0.219\nsamples = 8\nvalue = [7, 1]\nclass = y[0]"] ;
886 -> 887 ;
888 [label="gini = 0.0\nsamples = 7\nvalue = [7, 0]\nclass = y[0]"] ;
887 -> 888 ;
889 [label="gini = 0.0\nsamples = 1\nvalue = [0, 1]\nclass = y[1]"] ;
887 -> 889 ;
890 [label="X[17] <= 0.5\ngini = 0.131\nsamples = 926\nvalue = [65, 861]\nclass = y[1]"] ;
886 -> 890 ;
891 [label="X[1] <= 0.364\ngini = 0.011\nsamples = 554\nvalue = [3, 551]\nclass = y[1]"] ;
890 -> 891 ;
892 [label="X[2] <= 0.2\ngini = 0.004\nsamples = 455\nvalue = [1, 454]\nclass = y[1]"] ;
891 -> 892 ;
893 [label="gini = 0.0\nsamples = 316\nvalue = [0, 316]\nclass = y[1]"] ;
892 -> 893 ;
894 [label="X[19] <= 0.5\ngini = 0.014\nsamples = 139\nvalue = [1, 138]\nclass = y[1]"] ;
892 -> 894 ;
895 [label="X[3] <= 0.067\ngini = 0.074\nsamples = 26\nvalue = [1, 25]\nclass = y[1]"] ;
894 -> 895 ;
896 [label="X[8] <= 1.69\ngini = 0.18\nsamples = 10\nvalue = [1, 9]\nclass = y[1]"] ;
895 -> 896 ;
897 [label="X[6] <= 0.786\ngini = 0.5\nsamples = 2\nvalue = [1, 1]\nclass = y[0]"] ;
896 -> 897 ;
898 [label="gini = 0.0\nsamples = 1\nvalue = [1, 0]\nclass = y[0]"] ;
897 -> 898 ;
899 [label="gini = 0.0\nsamples = 1\nvalue = [0, 1]\nclass = y[1]"] ;
897 -> 899 ;
900 [label="gini = 0.0\nsamples = 8\nvalue = [0, 8]\nclass = y[1]"] ;
896 -> 900 ;
901 [label="gini = 0.0\nsamples = 16\nvalue = [0, 16]\nclass = y[1]"] ;
895 -> 901 ;
902 [label="gini = 0.0\nsamples = 113\nvalue = [0, 113]\nclass = y[1]"] ;
894 -> 902 ;
903 [label="X[26] <= 0.5\ngini = 0.04\nsamples = 99\nvalue = [2, 97]\nclass = y[1]"] ;
891 -> 903 ;
904 [label="gini = 0.0\nsamples = 77\nvalue = [0, 77]\nclass = y[1]"] ;
903 -> 904 ;
905 [label="X[0] <= -0.088\ngini = 0.165\nsamples = 22\nvalue = [2, 20]\nclass = y[1]"] ;
903 -> 905 ;
906 [label="X[5] <= 0.736\ngini = 0.32\nsamples = 10\nvalue = [2, 8]\nclass = y[1]"] ;
905 -> 906 ;
907 [label="gini = 0.0\nsamples = 1\nvalue = [1, 0]\nclass = y[0]"] ;
906 -> 907 ;
908 [label="X[5] <= 0.999\ngini = 0.198\nsamples = 9\nvalue = [1, 8]\nclass = y[1]"] ;
906 -> 908 ;
909 [label="X[6] <= 0.389\ngini = 0.444\nsamples = 3\nvalue = [1, 2]\nclass = y[1]"] ;
908 -> 909 ;
910 [label="gini = 0.0\nsamples = 1\nvalue = [0, 1]\nclass = y[1]"] ;
909 -> 910 ;
911 [label="X[8] <= 1.28\ngini = 0.5\nsamples = 2\nvalue = [1, 1]\nclass = y[0]"] ;
909 -> 911 ;
912 [label="gini = 0.0\nsamples = 1\nvalue = [0, 1]\nclass = y[1]"] ;
911 -> 912 ;
913 [label="gini = 0.0\nsamples = 1\nvalue = [1, 0]\nclass = y[0]"] ;
911 -> 913 ;
914 [label="gini = 0.0\nsamples = 6\nvalue = [0, 6]\nclass = y[1]"] ;
908 -> 914 ;
915 [label="gini = 0.0\nsamples = 12\nvalue = [0, 12]\nclass = y[1]"] ;
905 -> 915 ;
916 [label="X[6] <= 0.389\ngini = 0.278\nsamples = 372\nvalue = [62, 310]\nclass = y[1]"] ;
890 -> 916 ;
917 [label="X[13] <= 0.5\ngini = 0.499\nsamples = 63\nvalue = [30, 33]\nclass = y[1]"] ;
916 -> 917 ;
918 [label="X[2] <= 0.2\ngini = 0.433\nsamples = 41\nvalue = [28, 13]\nclass = y[0]"] ;
917 -> 918 ;
919 [label="X[5] <= 0.474\ngini = 0.459\nsamples = 14\nvalue = [5, 9]\nclass = y[1]"] ;
918 -> 919 ;
920 [label="gini = 0.0\nsamples = 2\nvalue = [2, 0]\nclass = y[0]"] ;
919 -> 920 ;
921 [label="X[0] <= -0.088\ngini = 0.375\nsamples = 12\nvalue = [3, 9]\nclass = y[1]"] ;
919 -> 921 ;
922 [label="X[3] <= 0.067\ngini = 0.219\nsamples = 8\nvalue = [1, 7]\nclass = y[1]"] ;
921 -> 922 ;
923 [label="gini = 0.0\nsamples = 6\nvalue = [0, 6]\nclass = y[1]"] ;
922 -> 923 ;
924 [label="X[20] <= 0.5\ngini = 0.5\nsamples = 2\nvalue = [1, 1]\nclass = y[0]"] ;
922 -> 924 ;
925 [label="gini = 0.0\nsamples = 1\nvalue = [0, 1]\nclass = y[1]"] ;
924 -> 925 ;
926 [label="gini = 0.0\nsamples = 1\nvalue = [1, 0]\nclass = y[0]"] ;
924 -> 926 ;
927 [label="X[8] <= 0.87\ngini = 0.5\nsamples = 4\nvalue = [2, 2]\nclass = y[0]"] ;
921 -> 927 ;
928 [label="X[5] <= 0.736\ngini = 0.444\nsamples = 3\nvalue = [1, 2]\nclass = y[1]"] ;
927 -> 928 ;
929 [label="gini = 0.0\nsamples = 2\nvalue = [0, 2]\nclass = y[1]"] ;
928 -> 929 ;
930 [label="gini = 0.0\nsamples = 1\nvalue = [1, 0]\nclass = y[0]"] ;
928 -> 930 ;
931 [label="gini = 0.0\nsamples = 1\nvalue = [1, 0]\nclass = y[0]"] ;
927 -> 931 ;
932 [label="X[5] <= 0.736\ngini = 0.252\nsamples = 27\nvalue = [23, 4]\nclass = y[0]"] ;
918 -> 932 ;
933 [label="X[25] <= 0.5\ngini = 0.091\nsamples = 21\nvalue = [20, 1]\nclass = y[0]"] ;
932 -> 933 ;
934 [label="gini = 0.0\nsamples = 19\nvalue = [19, 0]\nclass = y[0]"] ;
933 -> 934 ;
935 [label="X[22] <= 0.5\ngini = 0.5\nsamples = 2\nvalue = [1, 1]\nclass = y[0]"] ;
933 -> 935 ;
936 [label="gini = 0.0\nsamples = 1\nvalue = [0, 1]\nclass = y[1]"] ;
935 -> 936 ;
937 [label="gini = 0.0\nsamples = 1\nvalue = [1, 0]\nclass = y[0]"] ;
935 -> 937 ;
938 [label="X[7] <= 0.124\ngini = 0.5\nsamples = 6\nvalue = [3, 3]\nclass = y[0]"] ;
932 -> 938 ;
939 [label="X[22] <= 0.5\ngini = 0.375\nsamples = 4\nvalue = [1, 3]\nclass = y[1]"] ;
938 -> 939 ;
940 [label="gini = 0.0\nsamples = 2\nvalue = [0, 2]\nclass = y[1]"] ;
939 -> 940 ;
941 [label="X[3] <= 0.899\ngini = 0.5\nsamples = 2\nvalue = [1, 1]\nclass = y[0]"] ;
939 -> 941 ;
942 [label="gini = 0.0\nsamples = 1\nvalue = [1, 0]\nclass = y[0]"] ;
941 -> 942 ;
943 [label="gini = 0.0\nsamples = 1\nvalue = [0, 1]\nclass = y[1]"] ;
941 -> 943 ;
944 [label="gini = 0.0\nsamples = 2\nvalue = [2, 0]\nclass = y[0]"] ;
938 -> 944 ;
945 [label="X[2] <= 0.2\ngini = 0.165\nsamples = 22\nvalue = [2, 20]\nclass = y[1]"] ;
917 -> 945 ;
946 [label="gini = 0.0\nsamples = 15\nvalue = [0, 15]\nclass = y[1]"] ;
945 -> 946 ;
947 [label="X[7] <= 0.124\ngini = 0.408\nsamples = 7\nvalue = [2, 5]\nclass = y[1]"] ;
945 -> 947 ;
948 [label="gini = 0.0\nsamples = 4\nvalue = [0, 4]\nclass = y[1]"] ;
947 -> 948 ;
949 [label="X[24] <= 0.5\ngini = 0.444\nsamples = 3\nvalue = [2, 1]\nclass = y[0]"] ;
947 -> 949 ;
950 [label="gini = 0.0\nsamples = 1\nvalue = [0, 1]\nclass = y[1]"] ;
949 -> 950 ;
951 [label="gini = 0.0\nsamples = 2\nvalue = [2, 0]\nclass = y[0]"] ;
949 -> 951 ;
952 [label="X[5] <= 0.474\ngini = 0.186\nsamples = 309\nvalue = [32, 277]\nclass = y[1]"] ;
916 -> 952 ;
953 [label="X[8] <= 1.69\ngini = 0.48\nsamples = 15\nvalue = [6, 9]\nclass = y[1]"] ;
952 -> 953 ;
954 [label="X[14] <= 0.5\ngini = 0.375\nsamples = 12\nvalue = [3, 9]\nclass = y[1]"] ;
953 -> 954 ;
955 [label="gini = 0.0\nsamples = 5\nvalue = [0, 5]\nclass = y[1]"] ;
954 -> 955 ;
956 [label="X[10] <= 0.5\ngini = 0.49\nsamples = 7\nvalue = [3, 4]\nclass = y[1]"] ;
954 -> 956 ;
957 [label="gini = 0.0\nsamples = 2\nvalue = [2, 0]\nclass = y[0]"] ;
956 -> 957 ;
958 [label="X[2] <= 1.049\ngini = 0.32\nsamples = 5\nvalue = [1, 4]\nclass = y[1]"] ;
956 -> 958 ;
959 [label="X[3] <= 0.483\ngini = 0.444\nsamples = 3\nvalue = [1, 2]\nclass = y[1]"] ;
958 -> 959 ;
960 [label="gini = 0.0\nsamples = 1\nvalue = [1, 0]\nclass = y[0]"] ;
959 -> 960 ;
961 [label="gini = 0.0\nsamples = 2\nvalue = [0, 2]\nclass = y[1]"] ;
959 -> 961 ;
962 [label="gini = 0.0\nsamples = 2\nvalue = [0, 2]\nclass = y[1]"] ;
958 -> 962 ;
963 [label="gini = 0.0\nsamples = 3\nvalue = [3, 0]\nclass = y[0]"] ;
953 -> 963 ;
964 [label="X[0] <= -0.088\ngini = 0.161\nsamples = 294\nvalue = [26, 268]\nclass = y[1]"] ;
952 -> 964 ;
965 [label="X[5] <= 0.736\ngini = 0.061\nsamples = 128\nvalue = [4, 124]\nclass = y[1]"] ;
964 -> 965 ;
966 [label="X[4] <= 0.558\ngini = 0.245\nsamples = 14\nvalue = [2, 12]\nclass = y[1]"] ;
965 -> 966 ;
967 [label="X[13] <= 0.5\ngini = 0.142\nsamples = 13\nvalue = [1, 12]\nclass = y[1]"] ;
966 -> 967 ;
968 [label="gini = 0.0\nsamples = 9\nvalue = [0, 9]\nclass = y[1]"] ;
967 -> 968 ;
969 [label="X[11] <= 0.5\ngini = 0.375\nsamples = 4\nvalue = [1, 3]\nclass = y[1]"] ;
967 -> 969 ;
970 [label="gini = 0.0\nsamples = 3\nvalue = [0, 3]\nclass = y[1]"] ;
969 -> 970 ;
971 [label="gini = 0.0\nsamples = 1\nvalue = [1, 0]\nclass = y[0]"] ;
969 -> 971 ;
972 [label="gini = 0.0\nsamples = 1\nvalue = [1, 0]\nclass = y[0]"] ;
966 -> 972 ;
973 [label="X[26] <= 0.5\ngini = 0.034\nsamples = 114\nvalue = [2, 112]\nclass = y[1]"] ;
965 -> 973 ;
974 [label="gini = 0.0\nsamples = 77\nvalue = [0, 77]\nclass = y[1]"] ;
973 -> 974 ;
975 [label="X[10] <= 0.5\ngini = 0.102\nsamples = 37\nvalue = [2, 35]\nclass = y[1]"] ;
973 -> 975 ;
976 [label="X[7] <= 1.747\ngini = 0.208\nsamples = 17\nvalue = [2, 15]\nclass = y[1]"] ;
975 -> 976 ;
977 [label="X[6] <= 1.182\ngini = 0.408\nsamples = 7\nvalue = [2, 5]\nclass = y[1]"] ;
976 -> 977 ;
978 [label="gini = 0.0\nsamples = 3\nvalue = [0, 3]\nclass = y[1]"] ;
977 -> 978 ;
979 [label="X[5] <= 1.261\ngini = 0.5\nsamples = 4\nvalue = [2, 2]\nclass = y[0]"] ;
977 -> 979 ;
980 [label="gini = 0.0\nsamples = 2\nvalue = [2, 0]\nclass = y[0]"] ;
979 -> 980 ;
981 [label="gini = 0.0\nsamples = 2\nvalue = [0, 2]\nclass = y[1]"] ;
979 -> 981 ;
982 [label="gini = 0.0\nsamples = 10\nvalue = [0, 10]\nclass = y[1]"] ;
976 -> 982 ;
983 [label="gini = 0.0\nsamples = 20\nvalue = [0, 20]\nclass = y[1]"] ;
975 -> 983 ;
984 [label="X[8] <= 2.51\ngini = 0.23\nsamples = 166\nvalue = [22, 144]\nclass = y[1]"] ;
964 -> 984 ;
985 [label="X[26] <= 0.5\ngini = 0.203\nsamples = 157\nvalue = [18, 139]\nclass = y[1]"] ;
984 -> 985 ;
986 [label="X[6] <= 1.182\ngini = 0.131\nsamples = 99\nvalue = [7, 92]\nclass = y[1]"] ;
985 -> 986 ;
987 [label="X[5] <= 0.999\ngini = 0.206\nsamples = 43\nvalue = [5, 38]\nclass = y[1]"] ;
986 -> 987 ;
988 [label="X[7] <= 1.747\ngini = 0.114\nsamples = 33\nvalue = [2, 31]\nclass = y[1]"] ;
987 -> 988 ;
989 [label="X[25] <= 0.5\ngini = 0.069\nsamples = 28\nvalue = [1, 27]\nclass = y[1]"] ;
988 -> 989 ;
990 [label="gini = 0.0\nsamples = 17\nvalue = [0, 17]\nclass = y[1]"] ;
989 -> 990 ;
991 [label="X[11] <= 0.5\ngini = 0.165\nsamples = 11\nvalue = [1, 10]\nclass = y[1]"] ;
989 -> 991 ;
992 [label="gini = 0.0\nsamples = 8\nvalue = [0, 8]\nclass = y[1]"] ;
991 -> 992 ;
993 [label="X[5] <= 0.736\ngini = 0.444\nsamples = 3\nvalue = [1, 2]\nclass = y[1]"] ;
991 -> 993 ;
994 [label="gini = 0.0\nsamples = 1\nvalue = [1, 0]\nclass = y[0]"] ;
993 -> 994 ;
995 [label="gini = 0.0\nsamples = 2\nvalue = [0, 2]\nclass = y[1]"] ;
993 -> 995 ;
996 [label="X[3] <= -0.764\ngini = 0.32\nsamples = 5\nvalue = [1, 4]\nclass = y[1]"] ;
988 -> 996 ;
997 [label="gini = 0.0\nsamples = 1\nvalue = [1, 0]\nclass = y[0]"] ;
996 -> 997 ;
998 [label="gini = 0.0\nsamples = 4\nvalue = [0, 4]\nclass = y[1]"] ;
996 -> 998 ;
999 [label="X[2] <= 0.2\ngini = 0.42\nsamples = 10\nvalue = [3, 7]\nclass = y[1]"] ;
987 -> 999 ;
1000 [label="gini = 0.0\nsamples = 5\nvalue = [0, 5]\nclass = y[1]"] ;
999 -> 1000 ;
1001 [label="X[8] <= 0.87\ngini = 0.48\nsamples = 5\nvalue = [3, 2]\nclass = y[0]"] ;
999 -> 1001 ;
1002 [label="gini = 0.0\nsamples = 2\nvalue = [2, 0]\nclass = y[0]"] ;
1001 -> 1002 ;
1003 [label="X[13] <= 0.5\ngini = 0.444\nsamples = 3\nvalue = [1, 2]\nclass = y[1]"] ;
1001 -> 1003 ;
1004 [label="X[8] <= 1.69\ngini = 0.5\nsamples = 2\nvalue = [1, 1]\nclass = y[0]"] ;
1003 -> 1004 ;
1005 [label="gini = 0.0\nsamples = 1\nvalue = [1, 0]\nclass = y[0]"] ;
1004 -> 1005 ;
1006 [label="gini = 0.0\nsamples = 1\nvalue = [0, 1]\nclass = y[1]"] ;
1004 -> 1006 ;
1007 [label="gini = 0.0\nsamples = 1\nvalue = [0, 1]\nclass = y[1]"] ;
1003 -> 1007 ;
1008 [label="X[5] <= 1.261\ngini = 0.069\nsamples = 56\nvalue = [2, 54]\nclass = y[1]"] ;
986 -> 1008 ;
1009 [label="gini = 0.0\nsamples = 33\nvalue = [0, 33]\nclass = y[1]"] ;
1008 -> 1009 ;
1010 [label="X[11] <= 0.5\ngini = 0.159\nsamples = 23\nvalue = [2, 21]\nclass = y[1]"] ;
1008 -> 1010 ;
1011 [label="X[8] <= 0.87\ngini = 0.32\nsamples = 10\nvalue = [2, 8]\nclass = y[1]"] ;
1010 -> 1011 ;
1012 [label="X[7] <= 0.124\ngini = 0.48\nsamples = 5\nvalue = [2, 3]\nclass = y[1]"] ;
1011 -> 1012 ;
1013 [label="gini = 0.0\nsamples = 1\nvalue = [1, 0]\nclass = y[0]"] ;
1012 -> 1013 ;
1014 [label="X[7] <= 1.747\ngini = 0.375\nsamples = 4\nvalue = [1, 3]\nclass = y[1]"] ;
1012 -> 1014 ;
1015 [label="gini = 0.0\nsamples = 3\nvalue = [0, 3]\nclass = y[1]"] ;
1014 -> 1015 ;
1016 [label="gini = 0.0\nsamples = 1\nvalue = [1, 0]\nclass = y[0]"] ;
1014 -> 1016 ;
1017 [label="gini = 0.0\nsamples = 5\nvalue = [0, 5]\nclass = y[1]"] ;
1011 -> 1017 ;
1018 [label="gini = 0.0\nsamples = 13\nvalue = [0, 13]\nclass = y[1]"] ;
1010 -> 1018 ;
1019 [label="X[2] <= 0.2\ngini = 0.307\nsamples = 58\nvalue = [11, 47]\nclass = y[1]"] ;
985 -> 1019 ;
1020 [label="X[18] <= 0.5\ngini = 0.18\nsamples = 30\nvalue = [3, 27]\nclass = y[1]"] ;
1019 -> 1020 ;
1021 [label="X[11] <= 0.5\ngini = 0.133\nsamples = 28\nvalue = [2, 26]\nclass = y[1]"] ;
1020 -> 1021 ;
1022 [label="gini = 0.0\nsamples = 13\nvalue = [0, 13]\nclass = y[1]"] ;
1021 -> 1022 ;
1023 [label="X[13] <= 0.5\ngini = 0.231\nsamples = 15\nvalue = [2, 13]\nclass = y[1]"] ;
1021 -> 1023 ;
1024 [label="X[8] <= 0.87\ngini = 0.346\nsamples = 9\nvalue = [2, 7]\nclass = y[1]"] ;
1023 -> 1024 ;
1025 [label="gini = 0.0\nsamples = 3\nvalue = [0, 3]\nclass = y[1]"] ;
1024 -> 1025 ;
1026 [label="X[6] <= 1.975\ngini = 0.444\nsamples = 6\nvalue = [2, 4]\nclass = y[1]"] ;
1024 -> 1026 ;
1027 [label="X[7] <= 1.747\ngini = 0.32\nsamples = 5\nvalue = [1, 4]\nclass = y[1]"] ;
1026 -> 1027 ;
1028 [label="X[5] <= 0.999\ngini = 0.5\nsamples = 2\nvalue = [1, 1]\nclass = y[0]"] ;
1027 -> 1028 ;
1029 [label="gini = 0.0\nsamples = 1\nvalue = [1, 0]\nclass = y[0]"] ;
1028 -> 1029 ;
1030 [label="gini = 0.0\nsamples = 1\nvalue = [0, 1]\nclass = y[1]"] ;
1028 -> 1030 ;
1031 [label="gini = 0.0\nsamples = 3\nvalue = [0, 3]\nclass = y[1]"] ;
1027 -> 1031 ;
1032 [label="gini = 0.0\nsamples = 1\nvalue = [1, 0]\nclass = y[0]"] ;
1026 -> 1032 ;
1033 [label="gini = 0.0\nsamples = 6\nvalue = [0, 6]\nclass = y[1]"] ;
1023 -> 1033 ;
1034 [label="X[3] <= 0.483\ngini = 0.5\nsamples = 2\nvalue = [1, 1]\nclass = y[0]"] ;
1020 -> 1034 ;
1035 [label="gini = 0.0\nsamples = 1\nvalue = [1, 0]\nclass = y[0]"] ;
1034 -> 1035 ;
1036 [label="gini = 0.0\nsamples = 1\nvalue = [0, 1]\nclass = y[1]"] ;
1034 -> 1036 ;
1037 [label="X[3] <= 0.067\ngini = 0.408\nsamples = 28\nvalue = [8, 20]\nclass = y[1]"] ;
1019 -> 1037 ;
1038 [label="X[8] <= 0.051\ngini = 0.278\nsamples = 18\nvalue = [3, 15]\nclass = y[1]"] ;
1037 -> 1038 ;
1039 [label="gini = 0.0\nsamples = 1\nvalue = [1, 0]\nclass = y[0]"] ;
1038 -> 1039 ;
1040 [label="X[6] <= 1.975\ngini = 0.208\nsamples = 17\nvalue = [2, 15]\nclass = y[1]"] ;
1038 -> 1040 ;
1041 [label="gini = 0.0\nsamples = 12\nvalue = [0, 12]\nclass = y[1]"] ;
1040 -> 1041 ;
1042 [label="X[20] <= 0.5\ngini = 0.48\nsamples = 5\nvalue = [2, 3]\nclass = y[1]"] ;
1040 -> 1042 ;
1043 [label="gini = 0.0\nsamples = 3\nvalue = [0, 3]\nclass = y[1]"] ;
1042 -> 1043 ;
1044 [label="gini = 0.0\nsamples = 2\nvalue = [2, 0]\nclass = y[0]"] ;
1042 -> 1044 ;
1045 [label="X[8] <= 0.051\ngini = 0.5\nsamples = 10\nvalue = [5, 5]\nclass = y[0]"] ;
1037 -> 1045 ;
1046 [label="gini = 0.0\nsamples = 3\nvalue = [0, 3]\nclass = y[1]"] ;
1045 -> 1046 ;
1047 [label="X[5] <= 1.261\ngini = 0.408\nsamples = 7\nvalue = [5, 2]\nclass = y[0]"] ;
1045 -> 1047 ;
1048 [label="gini = 0.0\nsamples = 4\nvalue = [4, 0]\nclass = y[0]"] ;
1047 -> 1048 ;
1049 [label="X[7] <= 1.747\ngini = 0.444\nsamples = 3\nvalue = [1, 2]\nclass = y[1]"] ;
1047 -> 1049 ;
1050 [label="gini = 0.0\nsamples = 2\nvalue = [0, 2]\nclass = y[1]"] ;
1049 -> 1050 ;
1051 [label="gini = 0.0\nsamples = 1\nvalue = [1, 0]\nclass = y[0]"] ;
1049 -> 1051 ;
1052 [label="X[20] <= 0.5\ngini = 0.494\nsamples = 9\nvalue = [4, 5]\nclass = y[1]"] ;
984 -> 1052 ;
1053 [label="gini = 0.0\nsamples = 3\nvalue = [0, 3]\nclass = y[1]"] ;
1052 -> 1053 ;
1054 [label="X[11] <= 0.5\ngini = 0.444\nsamples = 6\nvalue = [4, 2]\nclass = y[0]"] ;
1052 -> 1054 ;
1055 [label="gini = 0.0\nsamples = 3\nvalue = [3, 0]\nclass = y[0]"] ;
1054 -> 1055 ;
1056 [label="X[6] <= 1.975\ngini = 0.444\nsamples = 3\nvalue = [1, 2]\nclass = y[1]"] ;
1054 -> 1056 ;
1057 [label="gini = 0.0\nsamples = 1\nvalue = [1, 0]\nclass = y[0]"] ;
1056 -> 1057 ;
1058 [label="gini = 0.0\nsamples = 2\nvalue = [0, 2]\nclass = y[1]"] ;
1056 -> 1058 ;
1059 [label="X[6] <= -0.404\ngini = 0.384\nsamples = 985\nvalue = [255, 730]\nclass = y[1]"] ;
831 -> 1059 ;
1060 [label="X[16] <= 0.5\ngini = 0.054\nsamples = 36\nvalue = [35, 1]\nclass = y[0]"] ;
1059 -> 1060 ;
1061 [label="gini = 0.0\nsamples = 1\nvalue = [0, 1]\nclass = y[1]"] ;
1060 -> 1061 ;
1062 [label="gini = 0.0\nsamples = 35\nvalue = [35, 0]\nclass = y[0]"] ;
1060 -> 1062 ;
1063 [label="X[17] <= 0.5\ngini = 0.356\nsamples = 949\nvalue = [220, 729]\nclass = y[1]"] ;
1059 -> 1063 ;
1064 [label="X[1] <= 0.364\ngini = 0.145\nsamples = 432\nvalue = [34, 398]\nclass = y[1]"] ;
1063 -> 1064 ;
1065 [label="X[7] <= 0.124\ngini = 0.043\nsamples = 271\nvalue = [6, 265]\nclass = y[1]"] ;
1064 -> 1065 ;
1066 [label="X[8] <= -0.769\ngini = 0.113\nsamples = 50\nvalue = [3, 47]\nclass = y[1]"] ;
1065 -> 1066 ;
1067 [label="X[11] <= 0.5\ngini = 0.444\nsamples = 3\nvalue = [1, 2]\nclass = y[1]"] ;
1066 -> 1067 ;
1068 [label="gini = 0.0\nsamples = 2\nvalue = [0, 2]\nclass = y[1]"] ;
1067 -> 1068 ;
1069 [label="gini = 0.0\nsamples = 1\nvalue = [1, 0]\nclass = y[0]"] ;
1067 -> 1069 ;
1070 [label="X[8] <= 1.69\ngini = 0.081\nsamples = 47\nvalue = [2, 45]\nclass = y[1]"] ;
1066 -> 1070 ;
1071 [label="X[3] <= 0.899\ngini = 0.046\nsamples = 42\nvalue = [1, 41]\nclass = y[1]"] ;
1070 -> 1071 ;
1072 [label="gini = 0.0\nsamples = 31\nvalue = [0, 31]\nclass = y[1]"] ;
1071 -> 1072 ;
1073 [label="X[6] <= 0.389\ngini = 0.165\nsamples = 11\nvalue = [1, 10]\nclass = y[1]"] ;
1071 -> 1073 ;
1074 [label="gini = 0.0\nsamples = 7\nvalue = [0, 7]\nclass = y[1]"] ;
1073 -> 1074 ;
1075 [label="X[8] <= 0.051\ngini = 0.375\nsamples = 4\nvalue = [1, 3]\nclass = y[1]"] ;
1073 -> 1075 ;
1076 [label="X[14] <= 0.5\ngini = 0.5\nsamples = 2\nvalue = [1, 1]\nclass = y[0]"] ;
1075 -> 1076 ;
1077 [label="gini = 0.0\nsamples = 1\nvalue = [0, 1]\nclass = y[1]"] ;
1076 -> 1077 ;
1078 [label="gini = 0.0\nsamples = 1\nvalue = [1, 0]\nclass = y[0]"] ;
1076 -> 1078 ;
1079 [label="gini = 0.0\nsamples = 2\nvalue = [0, 2]\nclass = y[1]"] ;
1075 -> 1079 ;
1080 [label="X[10] <= 0.5\ngini = 0.32\nsamples = 5\nvalue = [1, 4]\nclass = y[1]"] ;
1070 -> 1080 ;
